-0.00259093 0.0160159 -0.0149896 0.00174768 0.00119264 -0.00302023 0.00458181 0.00188985 0.00394975 -0.0236984 0.000441968 -0.00664492 -0.00636256 -0.00171248 0.0173126 -0.00764852 0.00703151 0.0014535 0.000936702 0.0120412 0.00261021 -0.0069196 0.0168143 -0.00702026 0.00175199 0.00274173 -0.00863064 0.0118623 0.0131654 0.00681032 0.00942564 0.00828367 -0.00589718 0.00209104 0.00860456 0.00294421 -0.00466873 -0.0166878 -0.00131742 0.0157662 -0.00791712 -0.00922316 -0.010473 -0.00441963 0.00955371 -0.000323921 0.000102804 0.00919759 -0.0200411 0.00180425 -4.06748e-05 0.00328624 -0.00421684 -0.00240951 -0.0241841 0.000147597 0.00437689 -0.00235778 -0.0236553 0.0197919 0.00767131 0.00742458 -0.000997097 0.000872492 0.00330197 0.00939695 0.00906232 0.00947846 -0.0075759 -0.0104273 0.00196687 -0.0218711 0.0111955 0.00294854 0.0114478 -0.00280847 -0.00566022 -0.0158177 -0.0198578 0.0230897 -0.00849881 -0.005622 0.00238523 -0.0115269 -0.00144153 0.0326738 0.00964104 0.0013468 0.0105803 0.00386196 -0.00439269 -0.00520294 -0.00683834 0.00402777 -0.00247104 -0.00450232 -0.00517197 -0.00900382 0.00385353 0.008843 0.00529413 -0.00805781 -0.0142843 -0.0146342 -0.0114927 8.07437e-05 0.0113115 0.00284978 0.00534473 0.00105752 -0.0114965 0.00183454 -0.000475864 0.00252087 0.00200894 -0.0110875 -0.000772877 -0.0167222 0.00556777 -0.000434082 -0.00253397 -0.00243695 0.0118847 -0.0130404 0.00483466 -0.00755475 0.0131691 0.00603007 -0.000371341 -0.0150665 -0.0111846 -0.00334255 -0.00977748 -0.00187029 -0.00110789 0.00595245 -0.0019531 -0.00622133 -0.00589057 -0.00398649 -0.00232575 0.0147349 -0.00648918 -0.0204702 -0.0116744 0.00627373 0.00634314 0.00307961 0.00664588 -0.00250867 0.00888706 -0.0309105 0.0134315 0.00454605 -0.00176505 0.0167956 0.00234252 0.00592962 0.0140025 -0.000998966 0.0125898 0.0115742 -0.00404673 0.00944092 0.0123057 0.0296737 -0.00193626 -0.0089315 0.0100537 0.00204822 0.0166996 -0.00434834 0.00403591 0.0071493 0.00681357 0.0100136 0.00195305 0.0119154 -0.00520383 0.00134259 0.000348947 0.0191995 0.0129303 0.0118623 -0.0105194 0.00217668 0.00337619 0.00121291 2.29495e-05 -0.0119 0.00455846 -0.0173894 -0.00107346 0.0100072 0.0138278 -0.00146402 -0.0121701 -0.00568854 0.0136443 0.0153561 0.00754965 0.00935905 -0.00704198 -0.0153691 0.0133811 0.0131269 0.0067828 -0.00271404 0.00942266 0.00624867 0.00723909 0.0137966 -0.00584536 -0.00584729 -0.000623014 -0.00461305 -0.0115825 -0.00363228 -0.0075366 0.0118375 0.00684575 0.00670306 -0.0165443 -0.00588957 0.00697458 -0.00558326 -0.00285771 -0.0100046 -0.0116185 0.00420826 -0.00176001 0.00590329 -0.00100065 -0.000176608 0.00837669 -0.0100349 0.0114805 0.00850383 0.0127404 0.0103863 0.0133975 0.0171866 0.00509128 -0.00110031 -0.00205292 -0.00718496 -0.00427841 0.00438089 0.00148621 0.015848 0.0214193 0.013124 0.0122079 -0.0102439 -0.00176637 -0.00170142 0.0116938 0.000652371 0.00455943 0.0162041 -0.00629948 0.0138987 0.00356868 -0.00852676 0.0110813 -0.0128039 -0.0233715 0.0096954 -0.00430963 -0.00964725 -0.0054565 -0.0152953 -0.017637 -0.000919889 -0.00172295 -0.00134892 -0.0136519 -0.00721897 0.012055 0.0117523 0.0176392 0.00107532 0.00149477 0.000841972 0.00730664 0.00123037 -0.00123592 -0.01592 0.0236853 0.00571125 0.0199908 -0.0117036 -0.00826927 0.0167324 0.0176234 0.0292334 0.0115177 -0.00927637 0.0138821 0.00669544 0.0114813 -0.000941701 -0.0016353 0.0191855 0.00498521 -0.00820542 -0.00532474 0.0174652 0.0151509 0.00496108 0.00951127 -0.00818843 -0.00746091 0.00233064 0.010467 0.0115984 0.00163597 0.00275728 0.00842566 0.0282593 0.00450111 -0.00334418 -0.0108836 -0.00283866 0.0184938 -0.0095332 0.01759 0.014129 -0.0140844 0.0067421 -0.00229787 0.0119595 -0.0113515 0.0111286 0.015341 0.00116554 -0.00953786 0.0105146 -0.000263517 -0.00638285 0.0144052 -0.0253363 -0.00877813 0.0014854 0.0109427 -0.00323517 0.00866631 0.0196085 -0.00862231 0.0141869 -0.000432592 -0.0211737 0.0188935 0.00876311 0.00737075 0.0230847 0.0155755 -0.0126262 -0.00756531 0.00318284 0.00594881 0.000692875 0.0102368 -0.00433194 -0.00471503 -0.0154836 0.00803986 -0.00785267 -0.00331297 0.0204546 0.0103423 -0.00906633 0.000405879 -0.0012034 0.00373235 -0.00727893 -0.0115769 0.0209947 0.00373995 -0.00295937 0.0132425 -0.000827688 0.0190115 0.0029814 0.0157489 -0.00388264 0.0188585 0.000461804 0.0121023 0.0114411 -0.00725956 -0.00702731 0.0194853 0.00799244 -0.0152371 0.0137967 -0.00577618 -0.00558375 -0.00822061 0.00687605 -0.00374962 0.00809269 0.00448276 -0.00130406 0.0252239 -0.00175054 0.0185245 0.00922853 -0.00412484 0.00353814 0.012549 -0.0231592 0.00771088 0.00220623 -0.0181695 -0.00358068 0.0163268 -0.00361613 -0.00525841 -0.00471497 0.00570179 -0.001653 -0.012339 0.000987323 -0.00869248 0.00212262 -0.00257493 0.0126556 -0.0140904 -0.00309118 0.00963703 0.0191699 0.00599626 0.00804497 0.00760542 0.0111575 0.0104376 0.00338562 -0.0111649 0.0175576 -0.017745 0.0219137 -0.0125287 -0.0052903 -0.00141451 -0.00793918 -0.0183611 -0.00241289 -0.0019443 -0.00270812 0.00127959 0.0141873 0.00885138 0.0053546 0.00977415 -0.00746373 -0.00322363 -0.00998737 0.00303736 -0.00421177 0.0116082 -0.00189203 0.00204411 0.0042186 0.0139549 -0.00604002 -0.00686894 0.00228844 0.00764935 -0.00883862 -0.000145304 -0.00479968 0.00127692 -0.0184598 0.00414378 0.00365588 -0.00906416 0.0120336 0.00516238 0.0118351 0.00465847 -0.00528941 0.00151966 -0.0053614 0.0134631 0.0131005 -0.0140713 0.00315378 -0.00441095 0.018587 -0.00183356 -0.00141568 -0.00620163 -0.0195451 -0.000212047 0.00343139 -0.00216076 0.00216786 0.00631697 0.0150116 -0.00480873 0.0103102 0.00235922 -0.0155233 -0.0194622 -0.0140047 -0.00837875 -0.0042736 0.00783284 -0.000448651 0.00959492 0.00664366 0.0248192 0.0151324 -0.00080333 0.00597727 0.00154018 -1.75492e-05 -0.000564321 0.0041079 0.0157092 0.00568876 0.0229541 0.00408799 0.011086 0.0118296 -0.0116806 0.0130732 0.0129373 -0.0179106 0.0106311 0.00774663 -0.00415502 0.00210069 0.00731003 0.00216208 -0.000575506 0.00761803 0.0134032 0.000945766 0.00320089 0.00891228 0.0031536 0.0199099 -0.00942504 0.00234262 0.00299533 0.00598137 0.00575104 -0.0147939 0.0120206 0.014499 0.00360084 -0.00780694 0.0159209 0.0105035 0.027851 -0.00188233 -0.013703 0.0207548 7.82768e-05 -0.012002 0.000322584 -0.00607687 -0.000240468 0.000585901 -0.00237326 -0.000404263 0.010979 -0.0206264 0.0176868 0.016944 -0.023074 0.027858 0.0152849 0.0130421 -0.000236413 -0.0228859 0.0204687 0.000523798 -0.0147546 0.00456468 -0.0150293 0.00735225 0.00279506 0.0186434 0.0173456 -0.0153934 0.00960138 0.00542556 -0.0155666 0.00189727 0.00819058 -0.0105075 0.0101862 -0.0012221 -0.00888927 0.00128986 0.0193181 -0.0034564 -0.00624026 0.00114002 -0.000330726 0.00583759 -0.0162066 -0.00490825 0.0118469 -0.00636933 -0.0104132 -0.0105951 0.00124765 -0.00638366 -0.0143756 -0.000710958 -0.000251342 0.0112316 0.0117146 -0.00509465 -0.00289934 -0.00271947 -0.0225348 -0.00480872 7.13487e-05 0.0117564 0.0194956 -0.00701501 0.000419207 0.00216472 -0.00324281 0.00770079 -0.00142501 0.00360781 0.00320795 0.0150468 -0.00400837 0.00789969 0.00402091 0.0113002 0.0124123 -0.00422974 0.0070992 0.000414298 0.0172352 -0.0172566 0.00513667 0.0033609 -0.0105847 -0.00552046 0.00875964 0.00981992 0.00701672 0.00462656 -0.00565011 0.000446237 -0.000219077 -0.0101184 0.00390287 -0.00526893 0.0143562 0.00374569 0.00380444 0.00441219 0.0080162 0.00371623 0.0011306 0.0111915 -0.00235986 -0.00849983 0.0153593 -0.00957897 -0.000725016 -0.0115662 -0.00990607 0.00788717 0.00301122 -0.000689928 0.014681 0.0104412 -0.00230791 0.00808145 0.00517388 0.00715193 -0.00563401 -0.000866478 -0.0364317 -0.0027963 0.000115194 -0.0296125 0.0019547 0.000956279 -0.00745721 -0.00367058 -0.000279445 0.00407948 -0.00406989 0.00503753 -0.00258382 -0.0031982 0.00865672 -0.0184027 0.0205306 -0.0143138 -0.019669 -0.0100172 0.0140448 -0.0164422 -0.0110809 -0.00134913 -0.00636416 0.0180647 0.00383437 0.00369002 -0.00509511 0.0123824 0.000375018 -0.00227871 0.0138895 0.0131115 0.0119452 0.00630827 -0.0149263 -0.0128958 -0.0158839 -0.0106464 -0.0080871 0.00440879 0.00989794 -0.0123667 -0.00438057 0.0083773 0.00302725 -0.0105357 0.00332597 -0.0235705 -0.0120043 -0.00715615 0.00909118 -0.00514226 0.00332965 -0.00863472 -0.00029397 -0.00609944 -0.0102749 -0.00365607 0.00767169 0.0117996 -0.0169749 0.00563364 -0.0174069 -0.00821204 0.0180904 0.00120498 -0.00461963 0.00589365 -0.022286 -0.006158 0.00305476 -0.0137339 -0.0028206 0.0120739 -0.00497626 0.00855363 -0.00426742 -0.0101803 0.00203435 0.00680508 -0.00612914 -0.0217597 0.0055326 0.00157629 -0.00566945 -0.00118379 0.0212937 -0.0122421 0.00586745 0.00400073 0.00973884 0.00482908 0.0180778 0.00926553 0.000252222 0.00511301 0.00968624 -0.00974835 0.0115821 0.00310814 0.00471109 0.0098617 0.00824845 0.0132901 0.00489443 -0.0211167 -0.0125107 0.0116304 -0.00166473 0.0106646 -0.00218271 0.00408495 0.0117414 -0.00293181 -0.000874553 0.00242119 0.0251494 0.0183126 -0.0119097 0.00755538 0.0013614 0.00621323 -0.00357912 -0.00528984 -0.00158911 0.00202272 0.00313764 -0.0031474 0.0164095 0.013635 0.00474349 0.00935756 0.00887542 -0.00554205 -0.00951227 0.00310018 -0.00788645 0.0233572 0.000508484 0.00298644 0.00922792 -0.00435137 0.0144309 -0.011763 -0.00662254 0.00106898 -0.00871168 0.00959966 -0.012758 -0.00226214 0.0275276 -0.00507685 -0.00153312 0.00926287 -0.0100136 0.00636202 -0.0176518 -0.00141797 -0.000316084 0.00620661 -0.00483439 0.00113903 0.00590811 0.0132037 -0.00617423 0.00922674 -0.00385776 0.012744 -0.0174942 -0.00626214 -0.00241201 0.00119246 -0.011938 -0.0148416 0.0094587 -0.00487611 -0.00470958 -0.00324653 0.008133 0.0130878 0.00443128 -0.00379699 -0.00502443 -0.011276 0.00721077 0.00901476 0.00872671 0.0178857 -0.0119475 -0.00886491 -0.0151733 -0.0146812 -0.00497897 -0.0233102 -0.00233888 -0.0157382 -0.0221057 -0.000575433 0.00430636 -0.0280131 -0.00984505 -0.00759415 -0.0165742 -0.00221713 -0.0132274 -0.00774811 -0.00797245 0.00111396 0.014539 -0.00398557 -0.00327634 -0.0142034 -0.00302015 -0.00457789 0.0178156 0.000635297 -0.00694515 -0.00370383 0.000612667 -0.0011377 0.0114076 0.0114998 -0.0327755 -0.00185025 0.00605551 -0.00868355 -0.0235038 -0.0192894 -0.0128136 -0.00918346 -0.0237855 -0.0275778 -0.0145923 -0.0180757 -0.00293704 0.014349 0.0074564 0.00527837 0.0047712 -0.0016899 -0.0139264 -0.0139022 0.00171 -0.00429699 -0.00419197 0.00171005 0.022763 0.00149264 -0.0277871 -0.0127288 -0.0466653 -0.036913 -0.0295558 -0.0508482 -0.0300037 -0.0243933 -0.0129654 -0.0172905 0.0248964 0.00211789 -0.00279729 0.0104395 -0.00741304 0.00675579 -0.00916656 -0.00328305 -0.00584981 -0.00372506 0.00661275 -0.00907311 -0.00253376 -0.00214621 0.00647209 -0.0161656 -0.00586642 -0.00701056 -0.0143538 -0.0224231 -0.0170983 -0.0286416 -0.00730242 0.00110775 -0.0140392 0.00928611 0.0282284 0.0348746 0.0314857 0.044545 0.0480978 0.0400262 0.00433941 0.00100179 0.0087024 -0.00142863 0.000120631 -0.00426746 0.00998002 -0.00212322 0.00996275 0.027895 0.027939 -0.0164776 -0.00534257 0.0215269 0.02119 -0.0108785 -0.00672563 0.0347377 0.0249655 0.0417732 0.0295706 0.0491818 0.0486903 0.0431643 0.0454553 0.043273 0.0467116 0.0261792 0.0205054 0.0129778 -0.00151389 0.0121129 0.0138051 0.0101154 -0.00135068 0.0160308 0.00660349 0.0125387 0.0321769 0.0152829 0.00466659 -0.0175998 0.0194416 -0.0132524 0.026145 0.0112596 -0.00900081 -0.00494026 0.0280885 0.0384332 0.0365594 0.0509417 0.0459352 0.0673562 0.0666622 0.0632999 0.0405912 0.0216869 -0.0141655 0.0122576 -0.00899459 -0.0322989 -0.0196964 0.00633796 -0.00549848 0.00914086 0.0509537 0.0146882 -0.00615266 0.0112499 -0.0127157 -0.000703908 0.0273635 0.0145647 -0.0304618 0.0108541 0.0508544 0.085979 0.0447042 0.0597661 0.0341247 0.054922 0.0514042 0.0331519 0.0233037 -0.0091795 0.0134725 -0.0114833 -0.00358558 0.00805532 0.00448194 -0.00469508 0.00294066 0.0386346 0.0384287 0.0440133 0.0426714 0.00629115 0.0158838 0.0381596 0.0282123 0.016434 -0.00522537 0.0372434 0.0669734 0.0572316 0.00994996 0.00821942 0.017751 0.0226999 0.0208927 0.0539216 0.0077729 0.0007619 0.00908099 0.018316 0.00092319 0.0107748 -0.00988275 9.77967e-06 0.00724609 0.0304129 0.0566524 0.068199 0.0374939 0.044973 0.0619458 0.0680059 0.0702221 0.0342957 0.0271038 0.0338931 0.0407718 0.014587 -0.00634378 0.0057634 -0.0174092 -0.00289411 0.0182007 0.00528872 -0.00371674 0.00403388 -0.0169461 -0.00273951 -0.0234924 -0.013487 -0.00291828 0.00434196 0.0207042 0.0354981 0.0863405 0.0836723 0.0575918 0.0646465 0.0576344 0.0715377 0.0798626 0.059717 0.0148705 0.00855346 0.0315188 -0.00706323 -0.0011123 0.00913286 -0.0277487 -0.0330895 0.00989636 -0.00289093 -0.00198784 0.00916263 0.00412595 -0.00955153 -0.0110376 0.00604707 0.00881265 -0.0193176 0.00803718 0.0571949 0.0868537 0.0628821 0.0548131 0.0414266 0.0399145 0.0663861 0.0705003 0.0248345 -0.0648356 -0.00564982 0.0125341 0.0224676 0.00316616 0.00858353 -0.00903467 -0.00407743 0.0216518 -0.0110072 -0.00544652 -0.0280192 -0.00946644 3.36122e-05 0.013611 -0.00464637 -0.00892579 -0.0106498 0.0132191 0.035686 0.0818669 0.064969 0.0119024 -0.0232127 -0.00205892 0.0137093 -0.00479191 -0.0281006 -0.068043 -0.01903 0.00420996 0.0324419 0.0189458 0.0176031 -0.00721889 -0.0182287 -0.00633386 -0.00942206 0.0124176 -0.0207564 -0.0100677 0.000884761 -0.00586074 -0.00229125 -0.00512121 0.0265692 -0.012657 0.0258038 0.0696517 0.0343992 -0.00352334 -0.0193996 -0.0109519 -0.0093258 -0.0422979 -0.063095 -0.0891201 -0.0498828 -0.0103193 0.0158833 0.0464749 0.0356301 0.0268236 0.0168517 -0.0015945 0.00876942 -0.00757109 -0.00977273 -0.0118733 -0.0146847 0.0104579 -0.00853978 0.0215671 -0.0147452 -0.0109225 0.0204852 0.0413982 0.0289402 0.0153239 -0.0364464 -0.0571238 -0.070182 -0.0678392 -0.0791552 -0.0618995 -0.0212689 -0.00115864 0.0418736 0.0514711 0.0308511 0.0225951 0.00195551 0.00166223 -0.00483202 -0.0111945 -0.00437844 -0.00391612 -0.0196362 0.0109988 0.008293 0.0027387 -0.00180763 -0.00710448 0.0202347 0.0288314 0.014618 -0.0021059 -0.0371621 -0.0917272 -0.09648 -0.0795732 -0.0611661 -0.0502481 -0.0199634 0.0166377 0.0456145 0.00812591 0.0440754 0.0383468 0.0261547 0.0122879 -0.0173233 0.00468121 -0.00249434 -0.0227513 -0.0112889 0.00811086 -0.0102558 0.00686628 -0.0211577 -0.0221101 -0.00726695 0.00835524 0.00869368 -0.000281133 -0.0625084 -0.0927361 -0.0854935 -0.0815344 -0.0660453 -0.0303258 -0.0196108 0.0076101 -0.00791297 -0.00441224 0.0174519 -0.00194328 0.0262406 -0.0142063 -0.00345827 0.00990425 -0.0239101 0.0013796 0.00326333 -0.00152438 0.000279508 -0.0077665 -0.0268011 0.00823768 0.00744114 -0.0148683 0.0178625 0.012235 -0.0399048 -0.0809422 -0.101668 -0.0767576 -0.0485626 -0.0224534 -0.0163278 -0.0411499 -0.0177162 -0.0158135 -0.0176525 0.000898389 -0.000721412 -0.0124529 -0.00819263 -0.0171045 -0.0251947 0.00661779 -0.0172397 -0.0113189 0.00164909 -0.00113402 0.0332782 -0.00302237 0.0273748 0.00291623 -0.0081395 -0.00335022 -0.0301436 -0.0300943 -0.0387187 -0.039931 0.00468925 0.000484292 -0.00652982 -0.030699 -0.0580815 -0.0404669 -0.0169571 -0.0377992 -0.0106237 -0.00834864 -0.00230449 -0.00837401 0.00184923 0.0129048 0.00369295 -0.00522516 -0.00104699 -0.0109358 -0.0101872 -0.00452834 0.0193214 0.0205621 0.0159202 -0.00025581 -0.00572915 -0.0121233 -0.0103151 -0.0203531 -0.00190051 -0.0146144 -0.019354 -0.0431797 -0.0351747 -0.0469283 -0.0288278 -0.0404475 -0.0269123 -0.0239663 -0.023128 -0.00772962 0.00227261 -0.00480699 -0.00652547 0.00104754 0.0160441 0.00965003 -0.0124217 -0.0104618 -0.0317408 0.0280012 0.0272552 0.0170658 0.00262293 0.00749428 0.0301695 0.0116901 0.0505232 0.00985777 -0.000784296 -0.00718131 -0.0104699 -0.0274489 -0.021634 -0.0319635 0.00546613 -0.0145127 0.00303841 -0.0102628 -0.0188481 0.00132548 -0.00865039 0.0115361 0.0123219 0.00782078 0.0112114 -0.0135536 -0.00769386 0.0139812 0.0181327 0.0339317 0.0136853 0.0132806 0.0151641 0.0275909 0.0655047 0.0372351 0.0205155 0.0165501 -0.00485242 0.00522987 -0.014062 -0.00243847 -0.00112629 -0.00188622 0.0203633 0.0172674 -0.0111461 0.0128856 0.00783223 -0.00535543 0.00774394 -0.00606042 0.00532558 0.00380509 0.00622972 0.017346 0.0183348 0.040526 0.0286081 0.027073 0.0130789 -0.0152938 0.0203887 0.0202982 0.0217445 0.0113322 0.00557686 0.0199978 0.0066797 -0.000545534 -0.00693734 0.00682102 -0.00289768 0.0104831 -0.00404964 -0.0032971 0.0125707 0.0057918 0.00817267 -0.0231957 -0.0113235 0.0170859 0.0197567 -0.0061042 0.0137477 0.0248646 0.0277938 0.005631 0.00839259 0.0340571 0.0116974 0.013798 0.0115863 0.0094857 0.0125938 -0.00507761 0.00357883 -0.00114475 0.00464302 0.00784353 -0.00857334 0.00985098 0.00882582 -0.00581673 -0.00623001 -0.00754809 0.00699686 -0.0160545 -0.00558737 0.00925732 0.00481108 0.00175964 -0.00428818 -0.00612096 0.022139 0.0046047 -0.00225189 0.00111829 -0.00220985 -0.00781027 0.00167223 -0.00838877 0.0196193 0.0115561 -0.0140531 0.00824171 -0.0211953 -0.000218465 0.000546095 -0.00125923 -0.0134512 -0.00461934 0.00967861 0.00993702 -0.00369762 -0.00693949 0.00898514 0.00580906 0.00906312 -0.0123806 -0.00340385 0.0142412 0.025065 0.013093 -0.00864081 -0.00409837 -0.0055743 0.00520086 0.00483446 0.0100703 -0.00270953 -0.00463858 0.00103726 -0.000781234 0.0163724 -0.00751234 0.00515684 -0.00364308 0.00727721 -0.00878979 0.00446452 0.00520572 -0.00271544 0.000622462 -0.00324302 -0.0140675 0.00331924 0.000751775 -0.00429934 -0.0100199 0.00411456 -0.00192977 -0.00432863 -0.018512 0.011957 0.00912757 -0.00757788 -0.0146975 -0.00937883 0.0027948 -0.000870681 0.0148838 0.00920017 -0.00966363 -0.00428999 0.0275028 0.00672613 0.0108011 0.0112257 -0.00183104 0.0136871 -0.00719337 0.00502238 0.0135491 -0.00253792 0.00105798 0.0072816 0.0194123 0.0174365 0.00127768 -0.00863962 -0.0104272 -0.0250058 0.0231476 0.0130793 0.00520519 -0.006536 -0.0211373 0.00365311 -0.00421599 0.000921975 0.00196415 0.00311852 -0.0259885 0.00227899 -0.0123723 -0.00134882 -0.00900543 0.0052879 0.00742956 0.00565017 -0.00973823 -0.0122697 0.00999446 0.00488809 -0.0125403 -0.0136891 0.00101477 0.00703967 0.0192368 -0.010904 -0.00172971 0.0174597 0.0215483 0.0202146 -0.0124896 0.0103952 -0.00557967 0.00275414 0.0137952 -0.00252649 0.00176154 -0.00395917 0.00339629 -0.00560079 0.00792328 0.0210562 0.0187512 0.000977517 0.0180322 0.001063 -0.000684133 0.0095952 0.000537377 0.0242327 0.00660772 0.0273892 0.0346967 0.0376056 0.0300893 0.0475175 0.0275464 0.0318586 0.00547588 0.0238803 0.0186585 0.00752626 0.000904975 0.00699658 0.020712 -0.00390903 0.00385556 -0.0124496 0.0108563 -0.00483181 -0.00607633 -0.00106682 -0.00163243 -0.0130132 -0.0116856 0.00351447 0.0155745 0.0222053 0.0272373 0.0255453 0.0405757 0.0345277 0.0192492 0.0482155 0.0458593 0.0309941 0.0357517 0.0368302 0.0207715 0.0265292 0.00330277 0.00875552 0.0103883 0.00197056 0.00515537 -0.0127947 0.00486246 -0.00333029 -0.00223736 -0.00784465 0.0092952 -0.0143155 -0.0106427 -0.0248584 0.00576891 0.00603327 0.0128781 0.00429965 0.0135011 0.0195013 -0.0136711 -0.020611 -0.0515794 -0.0293864 -0.0444099 -0.0299372 -0.0280906 0.000271256 -0.0244681 -0.0102825 -0.0252517 -0.0216371 0.00675589 -0.0116231 0.00940655 -0.0131552 -0.0117377 -0.00656876 -0.0150962 -0.014526 -0.0278387 -0.0150411 -0.00451511 -0.0341751 -0.0184454 -0.0132122 -0.0154793 -0.0131232 0.0180857 0.0594433 0.0371851 0.0180049 0.017534 -0.0471565 -0.0571856 -0.0511877 -0.0516682 -0.0495852 -0.0481277 -0.0139821 -0.00480959 -0.00928903 0.00570713 -0.00933405 -0.0128434 -0.00945474 4.49652e-05 -0.0395659 -0.0250422 -0.0221768 -0.0192556 -0.0139163 -0.0425754 -0.0169342 0.0321832 0.071143 0.128388 0.163655 0.124808 0.0773568 0.00609473 -0.00210418 -0.0444548 -0.0343236 -0.062045 -0.0834753 -0.0292686 -0.034888 -0.00194696 0.00149075 0.0218207 0.00505615 -0.0102592 0.00581239 -0.00794675 -0.01427 0.00708057 -0.0198084 -0.0194643 -0.0333843 -0.0511627 -0.0148278 0.053233 0.0893181 0.128144 0.150772 0.120676 0.0138811 -0.00524196 0.00134493 -0.0396198 -0.0648375 -0.06239 -0.0659905 -0.0194201 -0.0299694 0.0297382 0.019868 -0.0169516 -0.00232451 -0.00918163 -0.0158838 -0.00188991 0.00467525 0.00656972 0.00934477 -0.00496179 -0.0118145 -0.0104468 0.00199825 0.0554432 0.0721816 0.122086 0.128915 0.0622098 0.0186792 -0.0329799 -0.0169453 -0.0649896 -0.071783 -0.0662311 -0.0296666 -0.0128627 -0.0209689 -0.00272433 0.00592718 -0.00691534 0.00142539 -0.00621953 -0.00764412 0.00343764 -0.00559036 0.00445048 0.00682251 0.00324333 -0.0137876 -0.0201674 -0.00427493 -0.00809464 0.0313328 0.0552693 0.0567203 0.0205233 -0.0220998 -0.011358 0.00292422 -0.0309849 -0.0452186 -0.0380952 0.00905343 -0.00912187 0.00807187 0.0246675 -0.0100349 -0.00620734 0.00557059 -0.00480149 0.000719371 0.0247567 0.0104653 -0.0130548 0.00916846 0.00314119 -0.0294514 -0.0795333 -0.0459623 -0.0805516 -0.0240637 0.0269034 0.0290217 0.0182832 -0.024851 0.0611978 0.0325401 0.0191076 0.0151284 0.00292207 0.0124382 -0.0182136 0.010556 -0.00807707 0.00594083 0.00168115 -0.010499 0.0178995 0.00948929 -0.00167155 0.0020654 -0.0235143 -0.00757455 -0.0193736 -0.0396951 -0.102652 -0.107254 -0.123212 -0.0647265 0.00521616 0.036852 0.011082 0.0375735 0.0566801 0.0582443 0.0357232 -0.000454342 -0.00318273 0.00609827 0.00912321 0.00801445 -0.0107858 -0.00739606 -0.00964681 0.00469523 0.00623458 -0.00865266 -0.00363973 -0.0192808 -0.0300177 -0.0257505 -0.0119127 -0.084005 -0.106527 -0.102107 -0.0786264 0.00397202 0.0216375 0.0372536 0.014051 0.0307327 0.0397876 0.032079 0.0085851 -0.00982037 -0.00853321 -0.0123727 -0.00635973 0.00512726 0.0065677 -0.0101767 0.00491772 0.00179745 -0.00254241 -0.0128752 -0.018813 -0.0104912 -0.0517715 -0.0218259 -0.0300268 -0.0554692 -0.0246934 -0.0228525 -0.0524297 0.0181003 0.0343625 0.0240074 0.0307319 0.0220545 -0.0229161 -0.0478032 -0.0421754 -0.0175836 -0.0210234 -0.0163785 0.00128823 0.0182033 -0.000491485 0.00561449 0.0179322 -0.0021511 -0.0061071 0.00221086 0.0071016 -1.80037e-05 -0.00796633 -0.0086684 -0.0035656 -0.0297648 -0.018279 -0.0113771 0.00572163 0.0301048 0.0102329 0.0249025 0.0481503 0.0152779 -0.0581576 -0.0366801 -0.0040347 -0.00778714 0.00585573 -0.00248188 -0.00924859 0.0143388 -0.0182155 -0.00703202 0.00528716 -0.00261594 0.00105254 -0.0183534 -0.0137251 -0.00974968 -0.00750145 0.014902 -0.014355 0.00751782 0.0404273 0.0394206 0.0178234 -0.00743116 -0.00936973 0.0102746 0.0665697 -0.020811 -0.0274212 -0.0545149 -0.0122333 0.00141103 -0.0133751 0.00354066 0.00271046 0.0247394 -0.00403814 -0.000967734 0.000916051 0.00523462 0.0106167 0.0142331 -0.00490829 -0.0172796 -0.0191783 -0.00254668 0.00438491 -0.0176989 0.0390586 0.0556786 0.0263538 -0.0160882 -0.00675271 0.0234021 0.0156284 0.0038789 -0.0497333 -0.012786 -0.0077069 0.0063761 -0.00385849 -0.00900412 0.00571776 0.00529804 0.00108371 -2.86209e-05 0.018761 -0.0145889 -0.00239811 0.00529604 -0.0148848 -0.00257588 -0.0213911 5.51656e-05 -0.0233115 0.0172826 0.061005 0.0353334 0.0203424 -0.004864 0.0198295 0.018346 0.0367778 0.0370291 -0.017467 -0.00355289 -0.0193015 0.0154045 -0.00496964 0.0138995 0.029486 0.0109209 0.0100935 0.00975465 -0.00700159 0.00825327 -0.00400569 -0.00439819 0.00606668 -0.0154241 -0.0230903 0.0171928 0.00329511 0.0137333 0.00285502 0.0120379 0.000760432 0.000143013 0.0172676 0.0226622 0.0303645 0.0308544 0.0203495 -0.001303 -0.000545376 0.0137282 0.0229249 0.0209442 0.00711415 0.00176428 -0.0171651 -0.00880258 0.00617106 -0.0163487 0.011117 -0.00283636 -0.00999187 0.00179177 -0.00243813 0.0115824 0.0305598 0.000511286 -0.0123479 -0.0307785 0.00027229 0.0150591 0.0155182 0.004914 0.0129091 0.0522395 0.0056648 -0.0142291 -0.00644375 0.0109265 0.0400058 0.0497909 0.0235277 6.51511e-06 3.9302e-05 0.00477212 0.00477722 0.00553104 0.00890198 -0.00935912 0.0155074 -0.00620891 -0.0184628 0.00887897 0.00521377 0.000549721 -0.0367726 -0.031971 -0.0166681 -0.00221789 -0.0318134 -0.00706704 0.0107566 0.00956996 -0.000684368 0.000928624 0.00931873 0.000521485 -0.00298685 0.00664786 -0.00921184 -0.00752503 -0.00978513 0.0217949 -1.5634e-05 0.00204183 -0.00314031 0.00791838 -0.00854738 0.00912146 0.0116127 0.00513827 -0.0143146 -0.0412403 -0.0741306 -0.0806244 -0.0743307 -0.0957849 -0.0725186 -0.0662694 -0.0338907 -0.0240155 0.00267303 -0.00998768 -0.0374664 0.00712683 -0.00907406 0.0290155 0.00966976 0.011321 -0.00797458 -0.00432666 0.00321143 0.000895121 -0.0105421 0.000465005 -0.0140319 0.0107436 0.00878828 -0.00652335 -0.0195238 -0.0371928 -0.0706831 -0.0769905 -0.0946654 -0.0923055 -0.0805443 -0.0676245 -0.0229372 -0.0227266 0.0152342 0.0234395 -0.0202579 0.00633208 0.0182066 0.00539753 -0.0126035 -0.00132826 -0.0163987 -0.00191164 -0.00564324 0.00624401 0.00950147 -0.013678 -0.00264318 -0.00393382 -0.0111263 -0.0154163 -0.0142676 -0.0260843 -0.0264858 -0.032738 7.82932e-05 -0.00137983 0.0149719 0.0164063 0.0348046 0.0414216 0.0392262 0.0325904 0.031151 0.0302752 -0.00348931 0.0014033 0.00701852 -0.00348611 0.0102916 -0.0280051 -0.0038194 0.0254098 -0.00720621 -0.00512861 0.00486555 0.0145799 0.0259258 0.00862605 0.0344362 0.0557342 0.0685967 0.0393491 0.0577332 0.0535656 0.0535669 0.0557076 0.0828263 0.0880859 0.0693181 0.0202307 0.0289334 0.0156 -0.0203504 -0.00788955 0.00905821 0.0194961 -0.00114706 -0.00734654 0.023435 -0.0078323 -0.00502885 0.0234621 0.000711387 -0.0115161 0.00598238 0.00359867 0.0157529 0.0231921 0.0187816 0.0352454 0.0279259 0.0412452 0.0490787 0.0290653 0.0381835 0.00773964 0.0216608 -0.00157074 0.00384916 0.00667683 0.0128312 0.0128314 0.00796164 -0.00719176 -0.0258886 0.0127368 -0.0120499 0.000969438 0.010685 0.017256 0.00201878 -0.0021494 0.0022386 0.00947969 -0.00765977 0.0066542 -3.47437e-06 -0.00683939 0.0178198 -0.00360748 0.000760112 0.0141444 0.00538748 -0.000635314 -0.000345313 -0.00187945 0.0032376 0.0132243 -0.00816732 0.0291263 0.000409133 -0.00576451 0.00452846 0.01368 -0.0257161 0.00295917 -0.013718 -0.00615685 0.0124569 -0.00315829 -0.00165016 0.00392041 -0.0199798 0.00527698 0.00283033 0.00770602 -0.0223552 0.00522273 -0.00550642 -0.00435268 0.00518841 -0.013392 0.00363743 -0.0146941 -0.00330652 -0.0125806 0.0047591 -0.011302 0.00706646 0.0100907 0.0126276 0.0014993 0.0212344 -0.00541245 -0.00266486 0.00659349 0.00488646 0.000740468 0.000920794 0.00464172 -0.0021614 0.000826529 0.0305569 -0.00116598 -0.00806357 0.0109266 0.000612076 -0.0229599 -0.0190601 -0.0055974 0.0114052 -0.00792442 -0.00030187 0.00306265 -0.00137821 0.010846 -0.0260603 -0.0113359 0.0130436 -0.0116857 0.000401663 -0.00370903 -0.00829366 -0.0167561 -0.000232168 0.0151126 -0.0183257 0.00377296 0.0112671 0.00633541 -0.00533063 -0.00536163 0.0144104 0.00587555 -0.0088488 -0.00136383 0.00435436 -0.00623735 -0.00983968 0.0179709 -0.00452265 0.00835734 0.0184636 0.0206693 -0.00586371 -0.00265528 -0.0137642 0.00254644 0.00686986 -0.00161561 -0.000159501 -0.0111253 -0.00235609 -0.0075011 0.0146444 0.00216688 0.0116349 -0.0127116 -0.00306898 -0.0221735 -0.0170626 0.00110164 -0.0112273 -0.0277608 -0.0181939 -0.00127271 0.00785899 0.000565136 0.00663574 -0.00441498 -0.00314562 -0.00990721 0.000596596 0.0166281 5.76059e-05 -0.00241958 -0.00195202 0.000437743 -0.00509165 -0.0169233 -0.00204976 -0.0316682 -0.00202177 -0.0134147 -0.0253442 -0.0722142 -0.0572591 -0.057628 -0.0458736 -0.0469802 -0.0400335 -0.0562545 -0.0483236 -0.0175245 -0.0139023 -0.000542162 0.00315306 0.011802 0.0258484 0.00359174 -0.00340116 0.0224897 -0.00435858 -0.0108201 -0.00716556 -0.00276748 0.0190765 -0.00474616 -0.0155555 -0.0124821 -0.0297224 -0.0430147 -0.0649886 -0.0600964 -0.0674361 -0.0483341 -0.0643527 -0.028257 -0.0275225 -0.0556262 -0.0132922 -0.0174765 -0.00191421 0.0299061 0.042277 0.0435511 0.0462812 0.0302774 0.025446 -0.000241669 -0.00329186 -0.00774351 0.0123864 0.00799034 -0.0138466 -0.00138913 -0.022784 -0.00801975 -0.0477036 -0.0469922 -0.0727231 -0.0422089 -0.0273816 -0.0289747 -0.0141816 -0.0217183 -0.0148699 -0.0346908 -0.0100609 0.0110113 -0.00594797 0.0322954 0.0322382 0.0347567 0.0370236 0.0518594 0.0326389 -0.0145683 0.0164907 -0.00407568 -0.00886493 0.00821537 -0.00933111 0.00459779 -0.0129914 -0.0402817 -0.0451573 -0.0354595 -0.0440797 -0.0170141 -0.0313347 -0.0277063 -0.00923977 0.0119401 -0.0043926 0.00366386 0.0036829 0.0176562 -0.0259263 -0.01603 -0.023978 0.0170061 0.0143745 0.0157205 0.016199 0.018632 0.021231 0.0109363 -0.00279914 0.0114548 -0.0129724 -0.0276219 -0.0205174 -0.0299123 -0.0579269 -0.0240663 0.031108 -0.0207968 -0.0676508 -0.0767232 -0.0262411 -0.0208826 -0.0307966 -0.0173276 0.0137373 0.0182521 -0.0346315 -0.0162057 -0.0162244 0.0063792 0.0138254 0.0457835 0.0409434 0.0213699 0.00997426 0.0013944 0.0153476 0.00258055 -0.0156771 -0.00243755 -0.0188831 -0.0315027 -0.019705 0.0159929 0.019344 0.00306158 -0.023242 -0.0234873 0.00323726 -0.0174518 -0.0427548 -0.026264 -0.0214834 -0.046353 -0.0588735 -0.0224235 -0.00569039 0.00303011 0.0167763 0.0459767 0.0317455 0.00254681 0.0035879 -0.00463984 0.00180845 -0.0122355 -0.000541629 -0.0108921 -0.0125476 0.0124529 0.0159862 0.0276282 0.0632611 0.0283594 0.0479988 0.0512648 0.0431449 0.035774 -0.010065 -0.0270608 -0.0174387 -0.0621275 -0.0439019 -0.0066122 -0.00100436 0.00691443 0.0269325 0.0171567 -0.00488584 0.0114355 -0.00942236 0.0119631 -0.00195359 0.014953 0.00173956 -0.00962554 -0.0108838 0.0295265 0.0525432 0.0744271 0.102021 0.0925211 0.0834486 0.0654761 0.0602185 0.0691406 0.0421753 0.0200395 -0.00536891 -0.0337329 -0.0339971 -0.0185231 0.00963354 0.0199043 0.0348357 -0.00117656 0.020105 0.000866086 3.17283e-05 -0.000849784 0.00874963 -0.0144931 -0.0057198 0.0124342 0.0208953 0.0399048 0.0600498 0.0964068 0.107863 0.0880174 0.0732599 0.0326074 0.0318182 0.0426053 0.0456545 0.0176156 0.0142702 -0.0160423 -0.0424945 -0.00424142 0.0244912 0.0369714 0.0406296 0.034523 -0.00809301 0.00590809 -0.00669769 -0.0202818 0.013379 0.0031312 0.00101169 0.00213363 0.00392916 0.038385 0.0808076 0.108466 0.0825091 0.0573544 0.0533649 0.0329921 0.0205032 0.0432952 0.059423 0.0440653 0.0277565 -0.00221137 -0.0245657 -0.0203068 -0.00138435 0.02397 0.0443553 0.0193743 0.00286065 0.0103743 -0.0270597 -0.0084247 -0.00576779 -0.0079052 0.00142107 0.0109294 0.0104064 0.0553457 0.0885338 0.0585582 0.0518816 0.0209498 0.00722833 -0.00975275 -0.00718318 0.0157664 0.0385556 0.0216628 -0.000784489 0.00521235 -0.0276368 0.00248783 0.017644 0.00988076 0.0500588 0.0245145 0.0138506 -0.021389 -0.0229438 0.0215991 0.00637782 0.0177525 -0.00368278 0.0119103 0.00434627 0.0233951 0.0210919 0.01783 0.0292183 0.0218344 0.00391017 0.00829084 -0.00827952 0.0111165 0.0306229 0.0176364 -0.0329242 -0.0190811 0.0021592 -0.0169662 -0.00495506 0.00417535 0.0271594 0.00879073 -0.0216183 -0.0273021 -0.010738 -0.00843084 -0.00887686 -0.00969918 -0.0114282 -0.0132521 0.00935274 0.0165202 0.0206514 -0.00137885 0.0131156 -0.0141947 0.00528541 0.0390339 0.0213178 -0.00898031 0.0358101 -0.00565286 -0.0426904 -0.0198632 -0.0195324 -0.0101027 -0.0371075 -0.0200479 0.00767604 0.00731369 -0.00813327 -0.0252559 -0.0102514 0.014227 -0.0066006 0.00842152 0.00810524 -0.0109775 0.0188562 -0.0087851 0.0137663 0.0181737 -0.0143398 0.0163999 0.0310463 0.0314713 0.00659578 0.026319 0.0186914 0.00164527 -0.0414642 -0.0519921 -0.0129357 -0.0103422 -0.043528 -0.0216946 -0.0438934 -0.0153029 -0.0345825 -0.0249654 0.00798873 -0.00232053 0.0109546 0.0020046 -0.00926044 -0.0198158 -0.015569 -0.0130462 0.0202432 0.0194902 -0.0250942 0.0165148 0.0353072 0.0349445 -0.0157981 -0.0271161 0.0203047 -0.00162228 -0.0400507 0.0107922 0.00316944 -0.0233419 -0.0273282 -0.0412457 -0.0404815 -0.053249 -0.0372649 -0.0273005 -0.00693663 0.000883713 -0.02787 0.0105247 -0.0131075 -0.0126107 -0.026592 -0.0390225 -0.00558112 0.024088 0.00827258 -0.0131357 0.0175732 -0.012198 -0.0141314 -0.0167791 0.0371756 0.014887 -0.0220108 0.0130095 0.0165016 -0.0205305 -0.0345049 -0.0464801 -0.0240722 -0.0278585 -0.0264075 -0.0190601 0.0166194 -0.00701397 -0.00316415 -0.0153575 0.004222 -0.00986485 -0.0582829 -0.0411023 -0.0295179 -0.0108513 -0.00474906 -0.011692 0.0111748 -0.0161394 0.0233738 0.0233516 0.034415 0.0222947 0.0255408 0.0241524 0.0216387 -0.0193314 -0.0223383 -0.0209348 -0.0142875 -0.0257008 -0.0171704 -0.0161016 -0.0151087 0.0132324 -0.00184318 0.00050719 -0.00140177 -0.0254138 -0.0497354 -0.0262275 -0.0416271 -0.0296791 -0.0143512 -0.0192342 0.0204673 0.0191385 0.0101081 0.050657 0.0161556 0.0175856 0.0255167 -0.000314635 -0.00545014 -0.00296348 -0.00714455 -0.00382299 -0.00505912 -0.00894056 -0.0215248 0.00582637 -0.00482058 -0.0141458 0.00930613 0.00309883 -0.00946643 -0.00925213 -0.0160931 -0.0317355 -0.0260235 0.00551492 0.00967774 -0.00415654 0.0080264 0.0192245 0.0163119 0.00156958 0.0161816 0.00017826 -0.000541082 0.0159593 0.0138248 0.0160697 0.00930816 0.00514133 -0.0242237 0.00186467 -0.00271139 -0.0103194 -0.00156818 0.00879137 -0.00356938 -0.0169027 0.0144486 -0.00593084 -0.0113269 -0.0326903 -0.0206871 0.00145285 0.00278899 -0.00319613 0.00816032 -0.0112779 0.00388264 -0.00940852 -0.00392913 -0.0217731 0.0263318 0.030076 0.0150379 0.0568481 0.0283831 0.0157326 -0.00938179 0.00177873 -0.00615911 -0.00251004 -0.0136567 -0.000526843 -0.0222099 -0.00253412 -0.0178054 0.00820266 -0.0192861 -0.0101601 -0.0171555 -0.0233502 -0.0278718 -0.0136151 -0.0335272 -0.0174279 -0.032509 -0.0404716 -0.0108111 -0.01309 0.0212114 0.0421968 0.0053381 0.0442633 0.0104384 0.0132921 0.0358639 0.0133779 -0.00922439 0.00858881 0.00829076 -0.0139134 -0.000996787 -0.0138302 0.00278691 0.00551066 0.0136297 0.0151508 -0.0143877 -0.016874 -0.0360179 -0.00439399 -0.0200382 -0.0152469 -0.0595329 -0.048695 -0.0322845 -0.00488738 0.0130798 0.00725895 0.0221605 0.0237054 -0.00324593 0.00616656 -0.00302947 0.00816926 0.00130336 -0.00728799 0.00655962 0.000453704 0.00205256 -0.00763714 0.00619418 -0.00557481 0.00713659 -0.00963133 -0.00418186 -0.0279147 -0.00717706 -0.00356122 -0.0226752 -0.0119706 -0.0120006 -0.0299857 -0.0232362 -0.0168817 -0.00117939 0.00523986 0.00113462 0.00449237 0.00693637 0.00589114 -0.00593189 -0.00814063 -0.00311327 0.00512535 -0.00471872 -0.0112786 0.0113336 -0.00339332 0.004969 0.000825441 0.00319838 0.00593381 0.0144103 -0.0159888 -0.00828004 0.00888854 -0.00522298 -0.00405529 0.00811847 -0.0240715 -0.0181485 -0.0134764 -0.00285584 -0.00396056 -0.0118339 -0.00392794 -0.00152006 -0.00949524 -0.00628422 0.00895587 -0.00911104 0.00513182 0.000715894 0.0107019 -0.00986181 -0.00602795 0.0188133 -0.0019305 -0.00162768 -0.00183815 0.00742599 0.00724084 0.0150285 -0.00554107 -0.00527669 -0.0122828 -0.0128398 0.0136875 -0.00622533 -0.00331695 -0.0231492 0.00524268 -0.0125263 -0.00537411 -0.0151691 -0.00419254 0.000954304 0.0172372 0.00960722 0.0219852 0.00731617 -0.000698269 0.00578846 -0.00282166 0.0111664 -0.00197775 -0.00578377 -0.00910246 0.00488427 0.00464491 0.00465858 -0.0128477 -0.0185915 -0.0115937 0.0115465 -0.00811438 0.00984402 -0.00474198 0.00619579 -0.00847228 -0.00516513 0.00213325 0.0155513 0.0130028 -0.00364756 -0.000439967 -0.00199505 0.0146641 -0.000169156 -0.0186677 0.00567978 0.00182375 0.0138705 0.00348263 -0.00775079 7.53404e-05 -0.0141038 -0.00956528 0.00791816 -0.00381455 0.00368738 0.0113094 0.00878974 0.00579064 -0.0111953 -0.0110705 -0.0080259 0.000938077 0.0111063 -0.0162794 -0.0155037 -0.0166528 0.00156542 -0.00101605 0.0018796 -0.0203897 0.0135808 -7.35154e-05 0.0114506 0.00166723 -0.0123212 0.0133974 -0.00360563 0.00157853 -0.0019151 -0.0113345 0.0191922 -0.0203143 0.0203119 0.0262867 -0.00601932 0.0031062 -0.00638928 -0.00285537 -0.0242129 -0.00660133 -0.0280913 -0.0405648 -0.0243994 -0.0172177 -0.0146843 -0.0061946 0.012183 0.0137828 0.00474461 0.0157596 -0.00629031 -0.014794 -0.0176239 0.0168142 0.00805633 -0.00650857 -0.00462001 0.00695331 -0.0149214 -0.0044793 0.00249676 0.00336349 0.0169706 0.0259624 0.0105642 0.0155275 0.0225498 -0.00762878 -0.0309882 -0.0222239 -0.0314155 -0.0348153 -0.0258754 -0.0222776 -0.00185318 0.0188355 0.0272592 0.0113201 0.0198957 0.00713101 0.00349736 0.0213046 0.0128127 -0.00605343 -0.00250229 0.00373916 -0.00592663 0.0099986 0.0101702 0.0222888 0.0268499 0.0457847 0.0684442 0.0606225 0.0626949 0.0537374 0.0329998 0.00810476 0.0122801 0.00849005 0.00189029 -0.00788069 0.00173536 0.00686484 0.00628619 -0.00272827 0.000713005 -0.00586459 -0.00258374 0.00506395 -0.00139311 -0.00961676 -0.00327619 0.00462689 0.00281326 0.0295094 0.0351952 0.0122363 0.0315751 0.0346584 0.0350945 0.0186314 0.0171568 0.0144926 0.0342434 0.0160456 0.0272195 0.0165239 0.0105951 -0.00162561 0.0199333 0.0291124 0.0058562 0.0128707 -0.00794822 -0.00555214 0.00811403 0.00712576 0.0178188 0.00633556 0.0153836 0.0192008 0.0230954 0.0137151 0.0219686 0.0248814 0.0218635 0.00810392 0.00562637 0.00398229 0.0354625 0.0274754 0.0329271 0.030239 0.0380892 0.028738 0.0216017 0.0346274 0.0230711 0.00803496 -0.0110528 0.0061718 -0.00712631 -0.00748553 0.00376685 -0.00657329 0.0101423 0.0193919 0.0282694 0.0265066 0.00455976 -0.011631 -0.0217402 -0.0181487 -0.0109255 0.00875879 0.00497808 0.0341257 0.0308718 0.0255675 0.024182 0.0281862 0.0285855 0.00489627 0.0257087 0.0244349 0.0235439 0.0328019 0.0234703 0.000851637 0.00420795 -0.00615566 0.0134518 0.00800642 -0.0112954 0.0369594 0.0043417 -0.0015029 -0.0256394 -0.0333216 -0.0410118 -0.0180041 -0.00607622 -0.0245632 -0.011016 -0.00936884 0.0116416 0.00454151 0.00576726 0.0258388 0.0165681 0.0147407 0.0169792 0.0313897 0.0512362 0.00953546 0.00304316 0.00579467 0.00660765 0.00175999 -0.0044437 -0.00315219 -0.0158469 -0.0122037 -0.00813841 -0.000806444 -0.00258138 -0.0126089 -0.0254628 -0.0294543 -0.0684809 -0.0233364 0.00689417 0.0238462 -0.0103278 0.0216931 0.00832665 -0.00768147 -0.0111581 0.00878566 0.00534098 0.015459 0.0470684 0.0128056 0.0147522 -0.00731769 -0.0287318 -0.00949406 -0.00565072 -0.00293483 -0.00132686 -0.01511 -0.0242182 0.00889933 -0.00362322 -0.0292927 0.00537853 -0.0454172 0.000350841 0.0382462 0.0185332 -0.0058744 -0.0344475 -0.0249881 -0.0291576 -0.000580336 -0.0198823 -0.00638468 0.0161676 0.0207573 0.0581147 0.0321225 0.0133854 0.00262201 0.0146893 -0.0100399 0.0160431 -0.0130752 -0.0149658 -0.0295599 -0.0230083 -0.0116347 -0.0188231 -0.00290767 -0.0126694 -0.00768872 -0.00845036 0.0124689 0.0148925 -0.00321474 -0.0528546 -0.0413952 -0.0381722 -0.0404652 -0.0352362 -0.010937 -0.0272964 0.0216697 0.0275633 -0.0128291 0.000210751 0.00533554 -0.0168754 -0.00874712 -0.00338606 0.00777452 -0.00244351 -0.0341168 -0.0344893 -0.0228795 -0.0297109 -0.0072247 -0.00974584 -0.0279091 -0.0146226 0.000259276 0.0258312 -0.0264109 -0.0488058 -0.0377587 -0.0515939 -0.033937 -0.0529735 -0.0159895 -0.0145909 -0.00722032 -0.00743097 -0.000169887 0.00223954 0.00864914 0.0134667 -0.00231848 0.00327889 -0.0208207 -0.0028232 -0.0285934 -0.0296578 -0.0180885 -0.0162167 0.00218227 -0.00846393 -0.0345058 0.00773831 0.0232679 0.039463 -0.0015419 -0.0126737 -0.0453069 -0.0428582 -0.054692 -0.0479577 -0.0330203 -0.0190481 -0.0178659 -0.00914739 0.00150769 0.0183542 -0.0163726 0.0095357 0.00815087 -0.00705435 0.00318846 0.00926577 -4.46465e-05 -0.00610044 -0.0205027 -0.0161975 -0.00106319 0.00156849 -0.0170578 0.0303977 0.0461647 0.027356 0.00375162 0.00455256 -0.0540162 -0.0681914 -0.0495081 -0.0458379 -0.0305723 -0.0286597 0.00574945 0.00496864 0.0210075 0.001807 -0.00894718 -0.00504358 -0.00319609 0.00358035 0.0111755 0.00823465 0.00618258 -0.0107952 -0.00535098 -0.00330897 -0.0164978 0.00195183 -0.00345022 0.0367896 0.0213993 0.0105457 -0.040847 -0.0434066 -0.028812 -0.0305237 -0.039318 -0.034408 -0.0115482 -0.0281125 -0.00858821 0.0158866 -0.00127872 0.000983611 0.00118124 -0.00671968 0.000851125 0.00360468 -0.00366825 0.03689 0.0347604 0.0252471 -0.00884355 -0.00272973 -0.0124852 -0.00277625 -0.0126944 -0.00571277 -0.0141571 -0.0329953 -0.0480594 -0.0137473 -0.0209279 0.00468068 -4.09301e-05 -0.00666621 0.0175943 0.0155617 0.0237116 0.0078269 0.00486261 0.00187816 0.00200308 -0.0109495 -0.00608039 0.0114993 0.00780704 0.0133994 0.0149022 0.0474133 0.0163885 0.0367596 0.0254961 0.00782323 -0.0109325 -0.0181503 0.0102795 -0.0259354 -0.0109379 -0.00605334 0.0077408 0.0144618 0.0259101 0.012566 -0.00241077 0.0293958 0.0539176 0.0362546 -0.00336522 -0.00576836 -0.00516219 0.00592896 -0.0133565 0.00161934 0.00762353 0.0189033 0.0253966 0.058179 0.0817065 0.0423637 0.041013 0.0162666 -0.0136117 0.00861499 0.0112148 0.0153033 -0.0104164 0.00565687 0.0377742 0.0244385 0.00198224 0.0207675 0.0208221 0.0333646 0.0509023 0.0233638 0.00766902 0.0281878 0.00439359 0.00526254 0.0090381 -2.424e-05 0.00912335 0.000168596 0.0267416 0.0396493 0.0712137 0.0701062 0.0782023 0.0252475 0.0110486 -0.0125057 -0.0157391 -0.0115261 -0.021462 -0.0162391 -0.0185607 0.0306295 0.0173007 0.0204155 0.0204919 0.019391 0.0415031 0.0229427 0.00810526 0.0060422 -0.000739632 -0.000221923 0.00960187 0.0117196 -0.00519997 0.011259 0.0306037 0.0432075 0.0739865 0.0562626 0.0538744 0.0659688 -0.00464047 -0.00991987 -0.0312858 -0.01465 -0.0073991 0.0123369 0.0133886 0.044602 0.0134145 0.0335966 0.0235203 0.0232094 0.0317086 0.00730438 -0.00265248 0.00205848 0.00182673 0.0022315 0.0102542 -0.0103122 -0.00275582 0.00779409 0.021054 0.0351127 0.036372 0.0277529 0.0368135 0.0532825 0.0441512 0.0261623 0.0249646 0.00611292 0.0156458 0.00404082 0.0405398 0.0365793 0.0396505 0.0284661 0.00701644 0.0256898 1.87507e-05 0.00796628 -0.0011028 -0.00750147 0.00206217 -0.00618838 -0.000129254 -0.00264202 -0.0135751 -0.0156648 0.0036943 -0.00875976 -0.000955502 0.0226188 0.0187059 0.0276792 0.0569271 0.0473388 0.044458 0.065663 0.048487 0.0417195 0.0193074 0.00907556 9.4036e-06 0.00126163 -0.00554556 0.00955833 0.00457194 0.0177452 -0.00644924 -0.00554968 -0.000367907 -0.022952 -0.0019428 0.0102773 -0.0147009 0.00520331 0.00257797 -0.00711456 -0.0141852 -0.0310325 -0.0112398 -0.0278573 0.00390326 0.0243124 0.0337958 0.0106501 0.0189315 0.0311047 0.00484523 -0.0177045 -0.00853563 -0.0248077 -0.0021166 -0.000579081 -0.00688617 -0.0135295 0.000304635 -0.00222969 0.0103276 0.000333829 0.00710464 0.00196553 -0.00482919 0.0130046 -0.00738611 -0.00265931 -0.0268664 -0.0318365 -0.0485287 -0.0391604 -0.0431246 -0.0167453 -0.0226024 -0.0277994 -0.024169 0.00455458 0.00613286 -0.014666 -0.00319409 -0.0104948 -0.000274617 -0.00898128 0.000495017 0.00105563 0.00918266 0.00379711 -0.00216227 -0.0154297 0.00747299 0.00586171 -0.0123781 0.00507683 0.0091139 -0.0202054 0.00609935 -0.0272244 -0.00427536 -0.0267896 0.000872318 -0.012689 -0.0188448 0.00378071 -0.0126731 -2.17242e-05 -0.0123284 0.000465817 0.00524768 0.00314019 -0.0156355 0.00651336 0.0130518 -0.00168744 -0.0113467 -0.0120779 0.0158063 -0.00616458 -0.0154458 0.00878361 -0.00375155 0.00912212 0.00302989 -3.76294e-05 -9.83223e-05 -0.000237297 -0.00286132 -0.00387652 0.00817548 -0.0202606 0.00159937 0.00373039 -0.00582844 -0.00104252 0.00739606 -0.0160393 -0.0159343 -0.0329451 -0.00279389 -0.000916183 -0.0293214 -0.0112767 0.00735903 -0.00149419 0.00538987 -0.0127066 -0.00348278 -0.00971889 -0.00754967 0.00333586 0.00671537 0.0042864 0.00500564 9.32234e-05 -0.0018829 -0.0143841 -0.00799333 -0.00941163 -0.00473202 0.0177024 0.00023628 0.0143952 0.0139992 0.000450115 -0.000530032 0.0168183 0.00353109 -0.00356867 -0.00475355 -0.000335257 0.0162203 0.0133935 0.0235096 0.00396804 0.00128364 0.000372396 0.0129511 -0.00249985 -0.00147066 -0.00478783 -0.00511411 0.00913434 -0.00263417 0.00533863 0.00673586 -0.00782561 -0.000152445 -0.00963606 0.0112766 0.00235985 -0.0026323 -0.00225729 -0.000136417 -0.00402245 0.00830547 -0.00723199 0.00702744 0.0146979 0.00436912 0.0124869 0.00216617 0.0024589 -0.00813168 -0.00970575 -0.0102303 -0.00860194 -0.0018208 0.0116808 -0.0169561 -0.0054347 -0.0222766 0.0151941 -0.000947241 0.00560762 -0.0109766 0.00607285 -0.0128957 -0.00437747 -0.00117434 0.0225807 0.00954256 0.0156878 -0.00185841 -0.00831559 -0.0083418 -0.0100047 -0.00081657 -0.00230059 0.00463429 -0.0262075 0.0018778 -0.00301124 -0.0246553 0.0107915 0.00349577 0.00211463 0.00894077 -0.00906971 0.0093731 -0.00662175 0.00739217 0.00466713 -0.000124128 -0.00320365 -0.000569341 0.0107614 -0.00534244 0.0082814 0.0164718 0.00689203 0.00455068 -0.0395802 0.00849845 0.00471704 0.00224225 -0.0080411 0.0133957 0.00197868 -0.009354 -0.00132264 -0.00298897 -0.0145125 0.00327157 -0.0115458 -0.00711845 0.0082833 0.0016322 -0.00895422 0.00506473 -0.00242309 -0.00887154 0.012172 0.00965671 -0.000562335 0.00360694 0.0211895 0.00539076 -0.0173833 0.0178745 -0.00935763 -0.00196874 -0.00127457 0.000128041 0.00295812 0.000377165 0.00772522 -0.00803891 -0.00733471 -0.000934527 0.00348028 -0.00160986 0.0121468 -0.0100476 -0.000355211 -0.00210555 0.0102184 0.000995061 0.00718282 0.0014574 -0.00871154 -0.0145107 -0.0049886 -0.00306246 -0.0208141 0.0133736 -0.00137004 0.00103247 -0.0113647 0.0177088 -0.00678624 -0.00549093 0.00771997 -0.00778709 0.00671773 0.00128199 -0.00344518 -0.00440169 0.0049753 -0.010796 0.0113775 0.000939264 0.0143889 0.00511018 0.0189409 0.00981588 0.00467609 0.00900721 0.00580055 0.00639666 0.0104173 -0.00687929 -0.00250094 0.00439243 0.0199083 -0.00236158 -0.00670183 -0.00555998 -0.0237358 -0.00325863 0.0110765 0.000568362 0.00211557 -0.00586528 -0.00746025 0.00404866 0.0152517 -0.0122712 0.0014417 0.00355454 0.0149988 0.00809865 -0.00330118 -0.0129568 0.00452554 0.0126787 -0.000720807 0.0185509 -0.000683187 0.0204949 -0.00517992 0.0035003 0.00290123 -0.00274277 0.0028302 -0.00124375 0.00290819 -0.00423452 0.00839383 0.0106876 0.0184389 0.00539011 -0.00699835 0.000579426 0.0162168 -0.00563338 0.00329372 0.0146468 -0.00490189 -0.0155272 0.0236858 0.0232963 -0.00908729 0.00423279 0.00621777 -0.00114612 0.013877 0.000744441 -0.0129233 -0.0089519 0.0113625 -0.0039784 -0.00233159 -0.00250664 -0.00495477 -0.00512653 0.0131079 0.00661288 -0.0117048 0.012991 0.0216814 -0.0111061 0.013604 -0.0111549 -0.0174091 -0.0144179 -0.0211012 0.0136257 0.0146014 -0.00455502 0.00529463 -0.0141698 -0.00379452 -0.000885048 -0.00392802 0.0221892 0.0062171 0.00170589 0.00593845 -0.000599782 -0.00383935 0.0102777 0.0215652 5.3586e-05 -0.0167722 -0.00872999 0.000224177 -0.0093053 0.0206599 -0.00201779 -0.00265786 0.01156 0.0141197 0.000714682 0.0100737 0.00103685 0.0172721 0.0166634 -0.00628492 -0.0084334 -0.00949848 0.00199512 -0.0121685 0.00777724 0.0071067 0.0142229 -0.00759349 -0.00739192 0.0161766 0.0151266 -0.00164963 -0.0123252 0.000524616 -0.0035463 -0.00902266 0.000797382 0.00629378 0.00757994 -0.0171224 0.00241982 0.00733276 -0.00591729 0.0272114 -0.0186791 0.0012684 -0.0147889 0.0040575 0.0114313 0.000374694 0.0014558 -0.00700285 0.00875481 -0.005069 -0.00387704 0.0041627 0.014897 0.00831908 -0.00269101 0.0154738 0.0120671 -0.01528 0.0034759 -0.00344207 -0.000526984 -0.00193173 0.00572778 -0.000334871 -0.0108945 0.0110455 0.00330176 0.000469991 0.0173528 0.00145114 -0.0030853 0.00549835 -0.00147392 -0.00369197 0.0105026 -0.0107429 0.012623 0.00921262 0.00870841 0.00653128 0.00122889 -0.00204776 0.00393982 0.00822078 -0.00178343 -0.0121407 0.00119726 -0.00527792 -0.00678545 -0.0203487 -0.0105888 -0.0152244 -0.00893334 -0.00673784 -0.00206207 -0.00837257 -0.00286139 0.00549523 0.00170589 0.00417211 0.00327544 0.00579053 0.00889482 -0.00441712 0.00870588 -0.00546278 0.00749118 -0.010123 -0.00290883 -5.65788e-05 0.00205996 0.00167306 0.00680954 0.00215473 -0.0101957 -0.0197702 -0.00264524 0.00327419 0.00767376 -0.00383893 -0.0146121 0.00967168 0.00550492 0.00763481 0.00878845 0.0106054 -0.00235335 -0.012675 -0.00406026 0.00322148 -0.00573744 0.00441746 -0.00120005 0.0078791 0.00161466 0.00666801 -0.00600421 0.0117782 0.00812136 -0.0152209 -0.000459386 0.0126684 -0.0108 0.000175647 -0.00780146 -0.00539177 0.0022249 0.016151 0.00195893 0.016273 0.00558444 0.00903664 -0.00979503 -0.0149213 -0.00804632 0.00528636 0.00137353 -0.014135 0.00598843 0.00243054 0.00595728 -0.00289588 0.0187901 0.0141402 0.00801939 -0.00617323 -0.00137376 0.0187474 -0.00101879 -0.00486053 -0.0152658 0.00399258 -0.000985003 0.00688754 0.0219333 0.00690482 -0.00859713 0.0134417 0.0123767 -0.0118427 -0.00285593 0.0197657 -0.00268644 0.0210889 0.0140181 -0.00553943 0.0133811 0.0235547 -0.0113605 0.030188 0.0070288 -0.000707162 0.0097581 -0.0113367 -0.014065 0.00461838 -0.00439401 0.0114703 0.000230239 0.021715 0.00196857 -0.000900616 -0.0189577 -0.0121151 -0.00172102 -0.00949254 0.000580668 0.00741176 -0.0100706 0.0202137 0.00805294 -0.000929686 0.00782643 0.00200346 0.0297912 -0.0032858 0.00020014 -0.00788817 0.00308092 0.0106495 -0.0100365 0.00600928 0.00915087 -0.00530875 0.00871767 -0.00742957 0.0149122 0.00466855 0.0116919 0.00185264 -0.017542 0.0062384 -0.0120183 0.0173448 -0.00663687 0.0144532 -0.000929287 -0.0108302 0.00689221 -0.0222539 -0.00504164 0.0108378 0.011588 -0.00335178 0.0116945 -0.000336959 0.00769687 0.00478947 0.00878777 0.00425517 0.000777065 -0.00516338 0.00976835 -0.0173301 -0.00477518 0.0126758 0.00855839 0.00974256 -0.015082 0.00557074 -0.00852114 -0.0159744 -0.0073255 0.0104864 0.00707232 0.0166481 0.00389778 0.00496557 0.0131532 -0.00868656 0.0253541 0.0117676 -0.0142073 -0.00477253 0.00515495 0.00522236 0.00847131 -0.0105231 -0.00437702 0.00380112 -0.00145535 0.00154107 -0.00185802 0.00864218 0.00476885 0.0178675 0.0104343 0.01779 0.0121424 -0.0147426 0.00665403 -0.0176224 -0.0077366 -0.00401294 0.00806556 0.000715945 0.00867668 0.00459266 -0.00677477 -0.00956819 -0.00214782 0.00561672 -0.0142409 -0.000664335 -0.0169021 0.00488092 -0.0040495 0.010222 -0.010894 0.00274996 0.00398606 0.00367954 -0.0256927 -0.0138976 0.0165086 0.00979805 0.00546517 -0.0233887 0.0102907 -0.00447822 0.00308188 0.00355188 -0.00636812 -0.00206456 0.00748926 0.0047192 0.0107939 -0.0123784 0.0137821 -0.00848918 -0.00938729 0.000503465 0.00586244 -0.00759974 0.017292 -0.000786804 -0.00567584 0.00852528 -0.00581555 0.00358536 0.00496205 -0.00104423 0.00965171 0.0046462 -0.00158701 -0.0134285 0.0187352 0.00484273 -0.00594094 0.00493748 0.025106 0.00139553 0.00916885 0.00910806 -0.00395165 0.0247295 -0.00957039 -0.007203 -0.00503547 0.00228883 0.0216218 -0.0120133 -0.00290795 0.00473793 -0.00934276 -0.00461175 -0.0109342 0.00286705 0.004229 0.00113698 -0.0139235 0.0138573 -0.0171896 0.00818423 0.00501216 0.00762848 0.000854355 0.0196153 0.00870015 -0.00289721 0.000298488 -0.0112058 0.00795787 -0.00163233 -0.00426122 0.010357 -0.00169616 0.00971557 0.00127139 0.00386162 -0.0146709 -0.00746337 -0.0128808 -0.014358 0.00659267 -0.00267151 0.0131813 -0.0225222 0.000675991 -0.00166162 0.00421329 -0.0071865 0.00499568 0.00279809 -0.0131928 -0.00356101 -0.00283342 -0.0117305 0.021765 -0.00201507 -0.00877392 -0.00196002 0.0159779 0.0282763 -0.00867699 0.00907759 -0.010895 -0.010443 0.0216914 0.0102147 0.000409758 0.0142262 0.00606404 -0.000759953 -0.0043343 0.00230624 0.00177056 0.000200822 0.016304 0.00177355 -0.0170482 0.00540072 0.0186306 -0.00815123 0.00672855 0.00298988 0.00506717 -0.00161723 -0.0183876 0.0146888 -0.0143173 -0.015433 0.010781 -0.00605294 0.0108885 0.000392224 0.0141645 -0.0103359 -0.0133428 -0.00460139 0.0113064 -0.00528617 0.00694939 0.00721248 0.0046326 -0.010162 0.0020293 0.0130449 0.0233159 -0.00364346 0.0127801 0.00634017 0.00935203 0.00951138 0.00463911 -0.0124213 -0.0109127 -0.00513613 -0.00983169 0.00359574 0.00805322 -0.00176334 -0.0067594 -0.00666751 0.0256896 0.00505107 0.00193844 -0.00798056 -0.000427785 0.0184501 -0.00070992 -0.00419181 -0.00038193 0.00139184 -0.0168745 -0.00464512 0.00661363 0.00570162 -0.0125628 -0.0211471 -0.00131803 0.0105248 -0.0152622 -0.00792564 0.00266742 0.00635169 0.00623737 0.00448506 -0.00216445 -0.00789288 0.00785495 0.00851552 0.00560573 -0.0153106 -0.00294065 -0.00103693 -0.00312927 0.013417 0.00539341 0.00525757 -0.00323616 0.00584014 0.000383507 -0.00267926 0.0014659 -0.000114292 0.0137748 0.00343419 -0.00635029 0.0082894 0.00188633 0.00345837 0.0276611 -0.00330672 0.000317167 -0.00109123 -0.00690417 0.0188854 -0.0127573 0.000292594 -0.00999223 0.00799359 0.00646054 0.00887132 -0.00403854 -0.00775726 0.012008 -0.00172608 -0.00130432 0.0016895 0.00568587 -0.019681 0.00436583 -0.00992243 -0.0105273 0.0159677 -0.00389106 0.0102691 0.00349879 -0.00569393 -0.0281752 0.0034683 -0.00224449 0.00221726 -0.00873036 0.0122909 0.0101227 0.00214517 -0.0208476 0.0140458 -0.00730946 -0.0364238 0.00762065 0.00589063 -0.000335904 -0.000333948 -0.00059692 0.0098896 -0.00339822 0.0109017 -0.0165192 0.00304854 -0.0103158 0.00399124 0.00889729 0.00106537 0.00506994 0.00619512 0.00365578 -0.00170438 -0.00786825 -0.00609227 0.00564522 0.00536586 0.000975541 0.000668845 0.0228724 0.00540946 0.00307307 0.00587595 0.00664578 0.00854722 0.00912725 -0.000174055 0.00509138 -0.0178224 -0.00819025 -0.0109917 0.00112493 -0.0119432 0.00656535 0.00567296 0.0373682 0.0382727 0.00526287 0.0226631 0.0230351 0.00493115 0.0206038 0.00341925 0.00728485 0.00469231 -0.00908602 0.000306086 0.0119164 -0.0112431 0.00113143 0.00419691 0.0142104 0.000593456 0.00442493 -0.00324072 -0.0159735 -0.0153257 -0.0011682 0.00461309 -0.0144012 -0.0021971 0.0298678 0.0278752 0.024401 0.00329188 -0.00173489 -0.0185018 -0.0140343 -0.0452845 -0.00512045 0.0085091 -0.00599848 0.000352315 0.00322056 -0.00520722 -0.0160034 0.00656384 0.0028125 -0.00559201 0.00534499 0.00679685 0.0142132 -0.000282852 0.0180421 0.00370031 -0.00872356 0.00542617 0.00577283 0.0221044 0.0294868 0.0406294 0.0471721 0.00228865 -0.0180676 -0.0312987 -0.0277817 0.00123003 0.0163474 0.0202181 0.0370038 0.00756087 -0.00948606 -0.0357678 -0.00493496 0.00333281 0.00113683 -0.000160683 0.00484675 -0.00520639 0.00129497 -0.0117063 0.0105335 -0.00522338 -0.000834469 0.0261159 0.0183083 0.0409767 0.0253966 0.0339083 0.0336183 0.0370331 -0.0407981 -0.0226334 0.0129873 0.0193751 0.0323464 0.0201562 0.000188639 0.00281308 0.0093435 -0.0108434 -0.0206838 -0.0119822 0.00203676 -0.0103871 -0.00577336 -0.00183533 0.00507049 -0.0083232 0.00107235 -0.0187309 0.0208474 0.0151716 0.0317532 0.0327182 0.0437556 0.0449074 0.0326706 0.0101902 0.0186258 0.0190129 -0.0122724 0.0178708 0.0350137 0.0158564 0.0164224 0.0120494 -0.00517683 -0.0123674 -0.0034849 -0.0120567 0.00681471 -0.00146577 0.0243867 0.0221604 -0.00143054 0.00700022 0.013886 -0.00191382 -0.00109437 0.030012 0.0281193 0.0318088 0.045462 0.0446998 0.0293387 -0.00386963 -0.00278696 0.0088174 0.00580648 0.00860325 0.0113853 0.0102062 -0.00942552 0.0105852 -0.000462722 -0.00981008 0.0376653 0.0109962 -0.00720138 -0.00471208 -0.0088292 0.0061803 0.00780837 0.00812868 -0.012313 -0.0145385 0.0091644 0.0126818 0.0301035 0.0146742 0.0241181 0.0294136 0.0291045 0.0208827 -0.0121425 0.00424551 -0.0293782 -0.00724183 0.000111664 0.00801269 0.0204049 -0.00851247 0.0280899 0.0194047 0.0230527 0.0153318 0.0198966 -0.00665925 -0.0124392 -0.0262815 -0.0146168 0.00384934 -0.00346335 -0.00637357 -0.0200122 0.0201069 0.00655381 0.0273051 0.0171475 0.0217842 0.0285202 0.0184927 0.0181454 -0.030309 -0.0497908 -0.02842 -0.00535087 0.0165178 0.038959 0.0545643 0.0288847 0.00993976 0.0153144 0.0173181 0.0105941 -0.00164997 -0.00013346 -0.0149806 -0.0127459 -0.0132962 -0.0033292 0.00454557 -0.00486245 0.00746488 0.0127348 0.0179326 0.0318741 0.0210578 0.0363961 0.0331548 0.00752382 -0.0464995 -0.0700931 -0.0494012 0.00278758 0.0241447 0.0149234 0.00560273 0.00942973 -0.00191619 0.0114426 0.00307192 -0.00638426 0.000448785 0.0106297 0.0138282 0.000375321 0.00476588 -0.00495602 0.00314757 0.00675607 -0.00247374 0.00185358 0.0367759 0.0247763 0.0252155 0.0366941 0.0408245 0.007065 -0.0626986 -0.0633251 -0.0388218 -0.00688395 0.0263594 0.0170593 0.0293358 -0.0154229 0.00854154 0.00251766 0.00124703 -0.00174328 -0.0120537 0.00705761 0.0115775 0.00244235 0.00616918 0.0124006 -0.0123487 0.00101412 0.0150395 0.00953201 0.0195998 0.041115 0.0231374 0.055404 0.0189152 -0.0220278 -0.0436361 -0.0540961 -0.0351966 -0.00146927 0.0290646 0.00776997 0.0145052 0.0289565 -0.00628629 0.00456148 -0.00831771 -0.0148733 -0.014827 -0.0125065 0.00806453 0.0161234 0.0111926 0.00467385 0.00419611 -0.0024505 0.00756082 0.00428413 -0.0075316 0.0166032 0.0497909 0.0676462 0.0208827 -0.0272129 -0.0410243 -0.0223322 -0.0463617 0.0185118 0.00535726 0.00810598 0.0141076 0.00410056 0.00990844 -0.000288226 0.00403003 -0.0122068 0.00693903 -0.00200844 0.0177805 0.0243134 -0.00288012 0.00499565 -3.90711e-05 -0.0105177 0.00512581 -0.0115491 0.00523187 0.0136911 0.0370976 0.0408497 0.0221109 -0.00961138 -0.036095 -0.0157597 -0.0366761 0.011665 0.0236015 8.47227e-05 0.0298999 0.0251385 0.00954064 0.00635182 0.00619825 0.010287 0.00279253 0.00361808 -0.00162657 -0.00603033 -0.0115517 0.0119608 0.000410737 0.00526143 0.00439614 -0.000388124 0.0304218 0.0331643 0.0382772 -0.0025434 0.00947871 0.00204979 -0.0325553 -0.000907271 0.0139856 0.0428732 0.0262054 0.0355297 0.0139178 0.00599192 0.0154769 0.00447817 0.00875476 0.00447115 -0.00969459 -0.00490354 0.00173648 0.0151994 -0.00144009 0.0106145 0.00668649 0.00225277 0.0190977 0.0311652 0.0379761 0.0317725 0.0034796 0.0293979 -3.98905e-05 -0.0117939 -0.0187123 0.0201784 0.0507007 0.0629591 0.0596722 0.0290457 0.00651207 0.019921 0.00684606 0.023181 0.0167434 -0.00782172 0.00545724 0.00228625 -0.0112164 0.00475059 -0.00846899 0.00145728 0.0121253 0.00123273 0.0186287 0.00642909 -0.000137366 0.00852111 0.0140558 0.00837902 -0.00278539 -0.0340839 -0.0246154 0.0147834 0.0353405 0.044814 0.0291882 0.0291322 0.0287929 0.0108802 0.0105461 0.00974788 0.0276114 -0.000996589 -0.00726058 -0.0225215 -0.00184165 0.00227645 0.00106086 -0.00203881 0.002784 0.024343 0.00853161 0.0229792 0.0377068 0.0239741 -0.0036802 0.00942292 0.0204374 -0.0191272 -0.00247624 0.00948803 0.00569557 0.0215919 0.035543 0.0162094 0.0174553 0.0203167 0.024266 -0.00353022 0.0181072 0.0155968 -0.00598852 0.0141407 0.0111046 0.0101062 0.00849926 0.0140657 0.0161316 0.000205847 0.01699 0.0139742 0.0252249 0.00655394 -0.00198486 0.0154515 0.0402658 0.044708 0.0191785 0.00936783 -0.0124621 0.015927 0.00223339 0.0383362 0.0231821 0.0126355 0.00842597 0.00463273 0.00611481 0.0103129 0.0067247 0.0153947 0.00560712 -0.00403685 -0.00531729 -0.0102505 0.00228069 -0.0180069 -0.0162625 0.0135129 0.0179349 0.0189901 0.00747733 0.0230506 0.0513449 0.0308204 0.0220657 -0.00922745 0.0115531 0.0047156 0.0204832 0.0179549 0.0351772 0.017999 0.0127451 0.0226752 -0.00864191 0.00682268 -0.00849401 -0.00436742 0.017017 0.00970888 0.0100755 -0.00278113 0.0126784 -0.00859634 -0.0276535 -0.0151658 0.0289209 0.0182377 -0.011309 0.0235499 0.0403181 0.0237192 -0.00265705 0.00677852 -0.00136482 0.0207093 0.0089395 0.0138798 0.0151997 0.0123981 -0.00670828 0.00101991 -0.0191452 -0.00202136 -0.000544439 -0.00699492 0.00191049 0.00294529 0.00263429 0.00779926 0.00786166 -0.0270738 -0.0333502 -0.0242821 0.0263533 0.0217243 0.0150524 0.0252467 -0.0104195 -0.00801229 -0.000361278 0.0133891 -0.0131488 -0.00570693 -0.00813385 0.0287676 -0.000420835 0.00493473 -0.0104167 0.00357533 -0.00228864 -0.011282 -0.0176226 -0.0014727 0.00511427 0.00119842 0.013341 -0.000373447 0.00408698 0.00333847 -0.0237724 -0.00867784 0.00453034 0.0385901 0.0342412 0.032724 0.0370288 0.0278108 0.0330877 0.0306847 0.01527 -0.000282571 0.0100713 0.000863578 0.00211379 -0.00354575 0.0112454 0.00503117 -0.0052798 -0.00400684 -0.00783057 0.00120964 0.00442348 0.00617756 -0.0146008 -0.00342401 0.005762 -0.00700878 -0.019013 0.00641238 0.0066018 0.0185018 0.00758802 0.00395522 0.00270617 0.00960475 0.0137652 0.0203064 -0.0133536 0.0103979 -0.00862978 0.0129964 0.0199581 -0.0150815 0.00366263 -0.00967097 0.00563882 -0.00153613 -0.00271041 -0.00840996 -0.00337412 0.0122476 -0.0121429 0.00203036 -0.00642617 -0.0154101 0.0101628 -0.021815 -0.00159148 -0.00331328 -0.00255805 0.00872575 0.0179754 0.0136036 0.000783062 0.0136046 -0.00631597 -0.00299576 -0.00582506 -0.00591683 0.0021703 -0.0104667 0.00413194 -0.00177759 -0.00304645 -0.0136914 -0.0062479 -0.00160055 -0.0045293 0.0335301 -0.00635353 -0.00727929 -0.00861544 -0.000777473 0.00158502 -0.00334963 0.00108022 0.0122619 -0.0128802 0.0106787 -0.00185226 -0.00251462 0.0157286 0.00876134 0.0129483 0.0153021 -0.00453094 -0.00873531 -0.0141483 0.00270187 -0.00670206 0.00661969 -0.0133992 -0.00730588 0.00686016 -0.00749445 -0.0011952 0.00252275 0.0178966 -0.00678167 0.0107548 0.0171256 0.0214915 -0.0168129 0.019783 -0.0133387 -0.00760585 -0.00613767 -0.000104225 -0.00301932 -0.0197813 0.013801 -0.00302247 0.00441633 0.00392328 -0.00189089 -0.00544678 9.88186e-05 -0.00539544 0.00699613 -0.00127787 -0.0221634 0.0137914 -0.00420928 -0.00275419 0.00386219 -0.00509883 -0.0163917 -0.00480721 0.0185511 -0.00737794 -0.00953328 0.000649493 -0.00881318 -0.000105924 0.00424496 -0.00374004 -0.0123965 0.00203838 -0.00513451 0.00763016 -0.0129301 0.00522467 0.00798391 -0.0132503 -0.0105176 -0.0130744 0.00569262 0.0019811 0.00547099 -0.0117987 -0.000877735 -0.00771965 0.00319727 -0.00566372 -0.0112519 -0.0110211 -0.000599814 -0.0100029 0.00869281 0.00420251 -0.00483358 0.00743067 -0.0223705 -0.0294943 -0.0420741 -0.022956 -0.0402927 -0.0325635 -0.0242206 -0.0201164 -0.0145231 -0.0158484 -0.0136904 -0.00858868 -0.0104933 -0.00987801 -0.00333931 0.00513598 0.0108029 0.0129089 0.0106403 -0.0023291 0.00175263 -0.00216211 0.0141203 0.00337821 0.0107802 -0.00391275 -0.0122402 -0.0129592 -0.0162247 -0.0348317 -0.0243505 -0.0269742 -0.0401034 -0.0514625 -0.0301105 -0.0497392 -0.033116 0.00317511 -0.00802931 -0.0196364 -0.0103238 -0.0110481 -0.00404181 -0.00699103 0.00715783 -0.00444662 0.00731935 0.00756646 -0.00444646 0.0183573 -0.000696995 -0.00296914 0.00992576 0.00849146 0.0174627 0.00928794 0.0023756 -0.0116378 -0.00240149 -0.00822682 -0.0115152 0.00371426 0.00627027 0.00467835 -0.0327307 -0.0341329 -0.0437253 -0.0140409 0.00257244 0.0045348 -0.0172416 -0.00774084 0.00615796 -0.00266697 -0.00988815 -0.00112191 0.00819963 0.00650236 0.0168994 0.000723877 0.0182921 0.0403189 0.0144147 0.0356951 0.0175955 0.0259417 0.0229929 -0.00568104 -0.0150767 0.0196053 0.045117 -0.00321807 -0.000143224 -0.0396067 -0.0334115 -0.00662297 0.0151071 -0.00733956 0.00480514 0.00493858 0.00369016 0.00342579 0.00123523 0.00228833 0.0133855 0.0117154 0.0220828 0.0233268 0.0435568 0.0332981 0.045897 0.0332837 0.0137555 0.0274932 0.0442526 0.0318984 0.0470676 0.0539395 0.0557339 0.0516821 0.00762691 -0.0268042 -0.0276546 -0.00379084 0.0169675 0.0106402 0.0055459 -0.00628728 -0.00233431 -0.0149847 -0.0146692 0.0111031 -0.0115896 0.00445311 0.0197686 0.0121283 0.00185648 0.040659 0.0224167 0.0469064 0.0609176 0.0477503 0.0401839 0.0346736 0.0401573 0.0625752 0.0499868 0.0448598 0.0144406 0.016132 0.0220138 0.0369109 0.0224741 0.0117143 0.00439566 0.0103006 0.00889088 -0.00299155 -0.0110889 0.0042247 0.00475477 0.00803934 0.0274152 0.0253272 0.0234263 0.0186661 0.00847155 0.0381258 0.0284789 0.0428884 0.0462998 0.0342509 0.053523 0.0472834 0.00544993 0.0286652 0.0481182 0.038791 0.0495617 0.0423905 0.0350318 0.00730486 0.00750096 0.00595315 0.00148478 0.00199739 -0.00642486 0.0149997 0.0103579 -0.00515414 0.0239575 0.0201858 0.0165276 0.0183459 0.0103127 0.034761 0.0275337 0.0186082 0.0414346 0.0289428 0.031855 0.0258593 0.0469487 0.0508815 0.0605517 0.0509129 0.0415317 0.0385772 0.0295782 0.00971566 0.00288673 0.0169883 -0.00117599 -0.000145707 0.00653193 -0.00264789 0.015593 -0.000154417 0.00561015 0.0394048 0.00738132 -0.0122102 0.0190326 -0.000493273 -0.00494287 0.0121539 -0.00979727 -0.0168328 0.00347885 0.0229323 0.0195207 0.0410663 0.0438016 0.0392506 0.040002 0.0324094 0.0302872 0.00810603 -0.00161793 -0.00224713 -0.0163048 -0.00925511 -1.03547e-05 -0.00151798 0.00706358 0.010371 0.00998602 0.0115218 -0.0196227 -0.027243 -0.0148292 -0.00761089 0.00437075 -0.0119263 -0.0299808 -0.0220323 -0.0340853 -0.00219361 -0.00527795 0.00279498 0.0064555 0.0101891 0.0223309 -0.00772292 0.0145 -0.00485874 -0.0198552 0.007998 -0.00625319 0.00439623 0.00851558 0.00941895 -0.00362243 0.00389123 0.0294957 0.0122442 -0.0214137 -0.0112842 -0.00721064 0.0151085 -0.00881714 -0.0436821 -0.0139879 -0.0433905 -0.0279325 -0.0177581 -0.010554 -0.0141796 0.0140578 -0.0134723 -0.00613134 -0.00894304 -5.84318e-05 -0.00197315 -0.0043788 -0.00772568 0.0069143 0.00508909 -0.0103556 -0.00254766 -0.00740684 0.0201121 0.0045501 -0.000645926 -0.0328199 -0.0234561 -0.0377767 0.00498593 -0.0104401 -0.0113958 0.00532808 -0.0306529 -0.0303503 -0.0191326 -0.0197134 -0.00972054 -0.000691516 -0.0362422 -0.0511395 -0.0433432 -0.0282571 0.0121783 0.0139071 -0.00503846 -0.00388079 -0.00619936 -0.00819222 -0.0222696 0.00705026 0.0252626 -0.00374883 0.00802879 -0.0158189 -0.0252985 0.0152598 0.00550278 0.0149497 0.00860095 -0.0120247 -0.0260447 -0.0285743 -0.0185354 0.00235048 -0.0130447 -0.00336472 -0.0404226 -0.036612 -0.0203874 -0.00290666 0.0241683 0.0133463 0.024095 0.000348298 0.0199011 0.0129221 0.0120469 -0.00207635 0.0044502 0.0259318 0.0309834 -0.00749407 -0.0105622 -0.00716516 -0.00425303 0.0058908 0.0100577 -0.0253337 -0.0401747 -0.0249642 0.0120214 -0.0106767 0.00442664 0.000215812 -0.0193164 -0.00803117 -0.0319717 -0.00462482 0.026424 0.0206477 0.0218638 -0.00754685 0.00573793 -0.00268707 0.00173472 -0.0135145 0.00583399 0.00404732 0.0434437 -0.00241527 -0.0209034 -0.0260298 -0.0116059 -0.0134192 -0.0189043 -0.0261313 -0.0251339 0.00277754 0.0382529 0.00602151 0.00420604 0.0067059 -0.0114986 -0.0168276 -0.0310759 0.00216391 0.0169513 0.0124343 0.0175425 0.00668994 -0.000230383 0.0254358 0.0167978 -0.00350271 0.0289516 0.0329186 0.0503835 0.0227765 -0.0223032 -0.056238 -0.0318444 -0.0441481 -0.0347898 -0.0230475 -0.00723966 0.0429404 0.0642257 0.00137987 -0.00180514 -0.00729748 -0.0194675 -0.0189725 -0.0217676 0.00900631 0.0298526 0.00182599 0.0173902 0.0061407 -0.00767237 0.00698147 -0.0160622 0.0134166 0.0273095 0.0408858 0.056082 0.0564158 -0.0290309 -0.0349596 -0.0436501 -0.0420038 -0.0197239 -0.0205612 0.000131136 0.035438 0.00865081 -0.0388435 -0.0181891 -0.0267466 -0.0270478 -0.0146776 -0.00768693 0.00708101 0.02767 0.01939 -0.0153536 -0.0149979 0.000815695 -0.0140046 0.00637343 -0.00445698 0.0125873 0.0490772 0.0521369 0.0363219 -0.0233043 -0.0193926 -0.0487192 -0.0353001 -0.0256101 -0.0114635 -0.0224438 0.00424623 -0.0339312 -0.0102352 -0.0147005 -0.0077932 -0.0185831 0.00125021 0.0245887 0.0205412 0.00695581 -0.000241821 -0.0174897 0.00600941 -0.0016904 -0.0063517 0.0103672 -0.00848502 0.00902676 0.027161 0.0382091 0.020657 -0.00543482 -0.0291778 -0.0398135 -0.0546274 -0.0570913 -0.0457417 -0.0461811 -0.00472318 -0.0116261 -0.013293 -0.00943611 0.00584128 0.0149183 0.0184164 0.0239906 0.0152795 0.015923 0.0123743 -0.00327446 9.21335e-05 0.00457421 0.01668 -0.00899543 0.00837976 0.00994159 0.0212534 0.0159807 -0.00342034 0.000992582 0.006265 -0.0321968 -0.0165844 -0.0204668 -0.0342097 -0.0178752 -0.00566651 -0.00772908 -0.0239674 0.00199271 0.0229722 0.026807 0.0229878 0.00270469 0.0199643 -0.0027152 0.00215649 -0.0123753 0.00278692 -0.00437415 0.0126956 0.000207165 -0.00219223 0.0102204 0.0166541 -0.00816432 -0.0163215 -0.00754527 0.0291781 0.0141647 0.0229914 0.0349597 0.024811 0.0374515 0.0171692 0.00874027 0.0184677 0.024743 0.0301922 0.0426756 0.0105406 0.0161477 0.0114741 0.0042248 0.00975326 0.00575759 0.0219672 -0.00888904 -0.0136994 -0.00459198 -0.0106305 -0.00207754 -0.00242653 -0.0206869 -0.0351288 -0.0291943 -0.0313009 0.0172025 0.0305018 0.0299033 0.0309629 0.0365077 0.00509904 0.0113059 -0.0056811 0.0249575 0.0228017 0.0131112 0.00778199 0.00447582 0.0116256 0.00245019 0.000438825 -0.00651198 0.00697848 0.0197128 -0.0151792 0.00658242 -0.0130311 -0.00413446 0.00401598 -0.0172783 -0.0230524 0.00453733 0.00138035 0.0215913 0.0197662 0.0343311 0.0294184 0.00685163 0.0300729 0.0205025 0.00979566 0.00600082 0.0112155 0.0154788 -0.0110813 0.0162511 0.00017214 0.00712772 -0.0154802 -0.0215189 -0.00111453 0.00923909 0.0192041 0.00142764 -0.00434522 -0.00321443 -0.00997862 -0.000926527 0.00735868 0.00373064 0.0146658 0.00565081 0.011006 0.0242036 0.0103973 0.0122287 0.0155543 0.0112301 0.0171988 0.00153756 0.00432169 0.0152328 0.00803084 -0.0212559 0.0120539 -0.00663681 0.0195204 -0.00731355 0.00947268 0.0109428 0.00157942 0.00446389 0.00217228 0.00631533 -0.0156278 -8.25712e-05 0.0147285 -0.00652205 0.00982087 0.00906795 0.010795 0.0238953 0.004502 0.00407223 -0.00334962 0.0189012 0.0126116 0.0140915 -0.0066795 -0.00827752 0.00566452 0.00408492 -0.000518185 -0.00714479 0.011122 0.00238852 -0.0093036 0.00891273 0.00715094 0.0132079 0.0038134 0.00722218 -0.000857996 0.012614 0.0143106 -0.00643236 0.00393247 -0.0193951 -0.00755023 -0.00650381 0.0104053 -0.0120362 -0.0107277 0.00839877 -0.0168763 0.00252773 -0.00311319 0.00496572 -0.00973015 -0.00734216 0.00160969 0.00214952 -0.0151836 -0.00370587 0.00353567 0.00332653 -0.00127647 0.0021509 -0.00917809 0.00175229 0.00726764 -0.00910486 -0.0035887 0.00367677 -0.00720258 0.000198061 -0.00295372 -0.00987834 0.00442622 -0.0115371 -0.0150652 -0.024124 0.0158409 -0.00127307 0.008233 0.00112113 0.0100109 0.00605511 -0.0108473 0.00248493 -0.000908882 0.00915248 0.0100233 -0.00135327 0.00013815 0.00468647 0.0180352 -0.0130165 0.0140394 0.00592812 -0.00453023 0.00121086 -0.00179523 -8.01935e-05 0.0160621 0.024058 -0.00689913 0.0030452 0.00477458 -0.00132279 -0.00274633 -0.00759223 0.00480647 -0.00220604 -0.00295417 -0.01531 -0.00714726 -0.00586785 0.0207371 5.26076e-05 -0.00627233 0.00685152 -0.00199188 -0.0162036 0.00182796 0.00712535 0.0156977 -0.0041455 0.00317917 -0.0153906 -0.0157245 0.0189076 0.00936149 -0.00443914 0.0136795 -0.010252 0.0166487 0.00181951 -0.000751222 -0.0135245 -0.00973908 -0.0225598 -0.00764774 0.0139439 -0.00424772 -0.011405 -0.00611929 0.0202203 -0.00713407 -0.0110465 0.00382203 0.00194991 0.00220755 -0.0032984 1.9346e-05 -0.00647545 -0.00474357 0.0120093 0.00906924 0.00849435 0.00393714 0.00760488 0.0220619 -0.00544013 0.00703016 0.00576624 -0.00409892 -0.00423632 0.00669562 0.0027957 0.0156079 -0.00968592 -0.0193949 0.00302378 0.0151563 0.00259753 -0.00228588 0.0119925 0.00639766 -0.00268765 -0.0203526 0.00519953 -0.00752586 0.010717 -0.00856184 -0.00362513 -0.00956982 0.00275266 0.00496393 -0.0332393 -0.00471036 -0.00941563 -0.0137017 0.0142145 0.0157654 0.000661398 0.0134606 -0.0200676 0.0105086 0.00592536 0.0118944 -0.000359476 -0.0166099 0.00185279 -0.0122613 -0.00131711 -0.00678385 -0.00196809 -0.00350396 -0.0105194 -0.00920885 0.00701873 -0.0200791 -0.00704501 0.00289246 0.0348224 0.0296988 0.0208827 0.002371 0.00706371 -0.00728604 0.0233477 0.0263937 0.0626137 0.0129292 -0.00163068 -0.0195556 -0.0134225 0.00758699 0.00398973 -0.0077749 0.0207017 -0.0123904 -0.00288469 -0.0137107 0.0129105 -0.00960563 -0.0137631 -0.0218039 -0.0188168 -0.0167967 -0.000433597 0.0203819 0.0119669 0.00103582 0.0158175 0.0170198 0.0218828 -0.00558335 -0.00141867 -0.00776393 -0.014003 0.00326085 0.0228104 -0.0216335 -0.0117133 -0.0358874 -0.0133777 -0.00295522 -0.00569285 -0.00801857 -0.0121245 -0.00192242 -0.00681825 -0.00834748 0.00232586 0.000226525 -0.033595 -0.0147812 0.00744521 0.0163732 -0.0126327 0.00380287 0.0297371 0.00734789 0.0399833 0.0133319 0.0181738 -0.0331789 -0.0379485 -0.00667627 0.00048626 0.00417423 -0.00868446 -0.0290248 -0.0253886 -0.0251315 -0.00798471 -4.56781e-05 0.00526855 -0.0067794 -0.0038651 0.00562924 -0.0191975 -0.0122847 -0.00928802 0.025345 0.0372518 0.0085448 0.0355043 0.0359829 0.0179983 0.0228713 -0.0120012 0.00185383 -0.0419482 -0.0468059 -0.0599358 -0.00234033 -0.000654836 0.0126012 0.0198836 0.00207023 -0.00504533 -0.0139582 -0.00818875 0.012769 0.0114756 0.0030203 0.00785955 -0.00201887 -0.00624685 0.00380731 -0.0110458 0.0314696 0.0402382 0.0420211 0.0738979 0.0645976 0.0320375 -0.00277579 -0.0642451 -0.0504528 -0.0554072 -0.0577956 -0.0214913 0.00918519 0.00884197 0.0476904 0.0276522 0.0163688 -0.0113829 -0.0163124 -0.0157692 -0.0135415 0.0174707 0.00883006 0.00617229 0.00274156 0.00633016 -0.0260626 0.0187911 0.0290153 0.0492047 0.0496337 0.0532026 0.0634852 0.0422985 -0.0243579 -0.0786853 -0.0729668 -0.0656648 -0.0386539 0.0317152 0.0377114 0.0176223 0.0576866 0.0369556 0.0182896 0.00470055 -0.0120631 0.0032614 0.00415439 -0.0153484 0.00119494 0.00240228 -0.000240378 0.0152935 0.0111609 0.023663 0.0184754 0.044922 0.0092521 0.00922076 -0.00291993 -0.020798 -0.0545227 -0.0969356 -0.0645772 -0.0105527 0.00278452 0.0224132 0.0529671 0.0597178 0.0737347 0.0387039 0.0244495 0.0110518 -0.0076901 -0.0213062 -0.00283848 0.000819393 0.0190289 -0.00468768 0.00404649 0.000191404 -0.0105673 -0.00121067 0.00577415 0.00956 0.0105174 -0.0197167 -0.0363599 -0.0685769 -0.0764498 -0.0944452 -0.0374041 -0.0266046 0.020072 0.0459538 0.0433798 0.0391844 0.030723 0.0153527 0.0190304 -0.00291153 0.00486204 0.0142774 0.000712868 0.00426269 -0.00167074 0.000620318 -0.0137739 0.0124941 0.00846956 0.0302416 -0.00510189 -0.0142278 0.00380078 -0.029209 -0.0255167 -0.043718 -0.0888057 -0.0765207 -0.0129756 0.0132484 -0.00395283 0.0240966 0.0232858 0.0318542 0.0173459 0.0258392 0.030156 0.00693125 0.00515806 -0.0174104 -0.000851327 0.00862546 0.00904813 0.00863466 -0.00332304 0.00331595 0.00353799 0.0196829 0.0288418 0.0231593 -0.0154741 -0.0133922 -0.0467652 -0.0464031 -0.0759908 -0.0509084 0.0232962 0.0386169 -0.00380798 -0.00985392 -0.0257194 -0.014566 -0.0337903 -0.00536288 0.00913989 0.000697627 0.00798075 0.00460604 -0.0113417 -0.00345069 0.00347389 0.0038503 0.00851475 0.00153195 0.0276883 0.0172428 0.049392 0.0297972 0.0122083 0.0134349 -0.0344073 -0.0506971 -0.0338221 -0.0324681 0.00357077 0.0418612 0.00620368 -0.0234229 -0.014081 -0.0442738 -0.0463493 -0.0274246 -0.00159435 0.0139001 0.020845 0.00649688 -0.013036 -0.0117535 0.00529838 -0.0251435 -0.0100677 -0.00686568 0.0384917 0.0164696 0.0464741 0.0550569 0.0518752 0.0403571 0.0451856 0.0426327 0.0095745 -0.0256353 -0.0111335 -0.00493013 0.00326703 -0.00411917 -0.0154595 -0.00968058 -0.0119831 -0.0289633 -0.00823531 0.00423247 0.00473127 -0.00731051 0.00717068 -0.00781691 -0.00375511 0.00137956 -0.0194007 -0.00327413 0.0140728 0.024297 0.0375717 0.0774894 0.0854619 0.0989871 0.100827 0.092381 0.0320826 0.0258789 -0.000590247 0.00106396 -0.0137358 -0.0253005 -0.0507617 0.00456547 0.013037 -0.00793451 -0.00816983 0.00573871 0.00627103 -0.0173863 -0.00963654 0.00599239 -0.0112514 0.0159349 -0.00338005 -0.0221029 -0.00948424 0.0033961 0.0270909 0.0600416 0.0900788 0.0932381 0.0918058 0.0899242 0.065659 0.0447043 0.0101273 -0.0247395 -0.0179859 -0.00435807 -0.0451229 -0.00944343 -0.0177234 -0.0146071 -0.00507879 0.00984937 0.00675287 0.00522569 0.00517947 -0.00678433 0.00338646 0.00716494 -0.0294043 -0.0234369 -0.0271265 -0.0183435 0.0104397 0.0422971 0.0552456 0.0764194 0.0680229 0.0366521 0.050986 0.0408561 -0.00238616 -0.00918826 -0.0116895 -0.0131874 -0.0213155 -0.00268179 -0.0124409 -0.00533749 0.0114659 0.00805695 0.00245347 -0.00764125 -0.00992222 -0.00897117 0.0138128 -0.000294155 -0.0322455 -0.0209943 -0.0337252 -0.0293477 -0.0194032 -0.00499322 0.0211279 0.0117995 0.0146659 0.0139846 -0.00672749 0.00559411 -0.0119245 -0.00473022 -0.0133369 0.000305372 0.00361294 0.0317312 0.00922726 -0.000703792 0.0173129 0.0151102 0.00741289 -0.00258969 0.018139 0.0119197 0.00759955 0.00116177 -0.0135912 -0.0183623 -0.0283059 -0.0308072 -0.0388551 -0.0344013 0.0129836 -0.0154236 -0.0262755 -0.0474439 0.0050022 -0.0108026 -0.0125336 -0.00707674 -0.0147631 0.000594436 -0.000325987 0.0468648 0.00564164 0.0125836 0.0075876 0.0148133 -0.00365551 0.00726233 0.00173587 -0.000328823 0.0105874 -0.0167945 -0.0109634 -0.0284339 -0.0193711 -0.0276766 -0.033776 -0.0367656 -0.0281224 -0.0203055 -0.0234098 -0.00844521 0.0135401 -0.0199882 -0.028394 -0.00798222 -0.000462239 0.0100331 0.0176371 0.0153045 0.0342555 0.0313457 0.0117312 -0.0144945 0.00704068 -0.004331 0.00375624 0.00623098 0.024828 -0.0120969 -0.0191265 -0.0192948 -0.0206503 -0.038267 -0.0614326 -0.0248074 -0.0373366 -0.0567186 -0.04925 -0.0123385 0.00232414 0.0174465 0.0156043 0.00891436 0.0219565 0.0205427 0.0219395 -0.0013329 0.00027997 0.0120128 0.0038832 0.00743286 0.00701985 0.00955371 0.000450586 -0.0129008 0.00217997 0.00253939 -0.00525696 -0.00318463 0.00520371 -0.018892 -0.0383461 -0.0371258 -0.0508677 -0.034507 -0.0421824 0.0148512 0.0375927 0.0239737 0.0184626 0.0289708 -0.00019795 0.00569127 0.00926751 0.00322782 0.00563147 -0.00929217 0.0150871 -0.000217076 0.0026977 -0.00337429 0.00348397 -0.0161511 -0.00376511 -0.0134394 0.0128503 -0.00693409 0.00740104 0.0110192 -0.0103951 0.00797518 -0.00558075 -0.010691 -0.0140535 0.0326871 0.00581305 -0.00436462 0.00903997 0.0054877 0.0105231 -0.00363476 -0.00546457 -0.00228992 0.00742266 0.0104093 -0.00545154 0.0244217 -0.00644009 0.00957421 0.0132431 0.00254531 0.0114037 0.00596703 0.00479441 -0.00475454 0.0134382 -0.0073825 0.00392374 0.00463272 -0.000333506 -0.00442386 -0.000345598 0.00865326 0.00822235 0.0214862 0.00872018 -0.000738261 0.0117708 0.0128619 0.00598134 0.00178086 0.0114255 -0.0175671 0.0224078 0.0113987 0.0136357 -0.0210611 -0.0146372 -0.0181165 -0.00639934 0.00301593 0.00677204 0.00168102 -0.000280375 0.0156053 0.00159992 -0.00409099 -0.00779778 0.0155427 -0.0133932 -0.00159284 -0.0162135 -0.00025916 0.0109648 0.00114232 0.00629688 0.0123207 -0.0114316 -0.010547 0.00232518 -0.0175544 0.0103689 0.028334 0.00515207 0.0050981 -0.0154313 -0.0166714 -0.0129079 0.0028618 0.0184148 0.000772951 -0.00931354 0.0063842 -0.00940185 0.00523337 0.010671 0.00491209 0.00765042 -0.00378356 -0.00378193 -0.00835427 0.0207896 -0.00702012 -0.0154584 -0.00563149 -0.00891942 0.0149582 0.00450357 0.0126029 -0.00784505 0.00683716 0.0172547 0.00116297 -0.011467 0.00730294 -0.00620376 0.0129292 -0.0260734 -0.00595785 0.00415266 0.00038906 0.00270442 0.0159184 -0.00178051 -0.00632405 -0.000131091 -0.00422719 0.00825231 0.0158139 0.00544141 -0.00587493 -0.00163831 0.00647307 -0.0050655 0.0123191 -0.00678097 -0.00587664 -0.000354846 0.0161423 0.0024009 -0.00841576 0.00160787 0.00366169 -0.0171932 -0.000726201 0.0174809 0.00557279 -0.0139609 0.000449994 -0.00156423 -0.00447759 -0.0106599 0.0169953 0.016375 0.000710624 -0.00126751 -0.00917408 -0.00170294 0.0121423 -0.0225557 0.00782297 -0.00490436 0.000863463 0.00854603 0.013713 0.00829256 -0.00274595 -0.00974671 0.000787204 0.00279556 0.00692233 0.0146553 -0.0109259 0.0235165 0.00408204 -0.0235043 -0.00560354 -0.00548662 -0.0151472 -0.0115145 -0.0230151 -0.0152426 -0.022166 -0.000336468 -0.0111941 -0.0115952 0.00457818 -0.00696657 -0.0109667 0.00663232 0.00343973 0.0143402 0.0128332 0.00329131 -0.0159998 0.0122857 -0.00722713 -0.0294441 -0.00709764 -0.00488945 -0.0036265 -0.00440941 -0.00325464 -0.00162856 -0.00053206 -0.00394861 -0.0115271 -0.0162807 -0.0183861 -0.0217135 -0.0200785 -0.0139903 -0.0113222 -0.00732505 -0.00963665 -0.000659324 -0.0258223 -0.00549466 0.022863 0.0101838 0.0097366 0.0100387 -0.00510396 0.00473996 -0.00103428 0.00356633 0.0182586 -0.00601511 -0.0046768 -0.00651984 0.00933707 -0.0191775 -0.0305711 -0.00933753 -0.0151126 -0.0334474 -0.0265494 -0.0405954 -0.0132611 0.0193205 -0.00248161 0.00357065 -0.00424382 -0.00381339 0.00823459 0.000427905 0.0171943 0.0186957 0.0313306 -0.00117483 0.0183565 0.0031968 0.00277385 -0.00081795 0.00206205 -0.0168571 -0.0110672 0.0158134 -0.0192412 0.0163289 -0.000649161 -0.0215358 -0.0250142 -0.0149066 -0.0311513 -0.0346054 -0.0226284 -0.00621293 0.00382662 -0.0180075 0.0144442 -0.000388581 -0.000177942 0.0025325 0.0197213 0.0196029 0.0180492 0.0108342 -0.00229592 0.000490379 0.0102127 -0.0355835 -0.00732122 -0.00394427 -0.0154161 0.00160966 0.00545877 -0.0300495 -0.0244417 -0.0392127 -0.0213799 -0.0415409 -0.0174265 -0.0135353 -0.0167484 -0.00150795 -0.0148244 -0.00564595 0.023361 0.0059605 -0.0175157 -0.0183551 -0.0264609 -0.00894145 -0.0105558 0.016498 0.0223731 0.0212663 0.00464896 -0.00022643 -0.00837242 -0.00408372 -0.00468239 -0.00635142 -0.0232193 -0.0464223 -0.0352412 -0.0209861 -0.0186985 -0.00907499 -0.00136315 -0.00429263 0.0169429 0.0313059 0.00917601 -0.0512783 -0.0320248 -0.0296813 -0.01457 -0.0324937 -0.028238 -0.0195692 -0.0226412 0.0242208 0.0157979 0.0116689 -0.0159926 0.0039194 0.000936894 0.00199006 0.00542834 -0.00890073 -0.0268374 -0.0419139 -0.0393214 -0.0178033 0.0111296 0.0218193 0.0157469 0.0446181 0.0649917 0.033852 -0.0341344 -0.0939794 -0.101959 -0.0502702 -0.0548692 -0.0386264 -0.0351981 0.000254346 -0.00957599 0.0111775 0.0214379 0.00109388 0.00440515 -0.00920485 -0.00878812 0.0170375 -0.0129457 -0.00901085 -0.011051 -0.0229616 -0.00719297 -0.00544969 0.0437961 0.038749 0.0422518 0.0738758 0.0647957 0.03259 -0.0455349 -0.0933752 -0.0921062 -0.0883288 -0.0381593 -0.0535275 -0.0173163 0.0124353 0.00351153 0.0220273 0.00809536 0.00862723 -0.00123589 0.00645308 0.000172969 -0.0093017 -0.000654828 -0.00846082 -0.0118129 -0.0105969 0.0117156 0.0445644 0.0661801 0.0642649 0.0750513 0.0638115 0.0420435 0.0514793 0.00790764 -0.0498424 -0.065347 -0.0543761 -0.0247947 -0.0167666 0.0199294 0.0309049 0.0249132 0.0197237 0.0223512 -0.0103701 -0.00600771 0.00969575 -0.0060404 -0.00475293 0.000328176 -0.0254122 -0.0201205 -0.00665206 0.033357 0.0507995 0.0370652 0.0713339 0.0487287 0.0384926 0.040495 0.0633489 0.0245992 0.0111472 -0.00503608 0.0234445 0.0158028 0.0206649 0.0100491 0.0520577 0.0390516 0.0250934 0.0194683 0.00389851 -0.00120515 -0.00593144 0.00443311 0.00636343 0.00639903 -0.0168751 0.00976692 0.00489315 0.0349225 0.0539895 0.0397732 0.084179 0.0435296 0.0211168 0.00324013 0.024954 0.0375794 0.0361152 0.0350033 -0.00476114 -0.00282624 -0.0199631 0.0160008 0.0217917 0.0503622 0.0240692 0.0184305 -0.00402964 0.0151911 -0.0322949 -0.0163989 0.00377879 -0.0209195 0.00135556 -0.0193307 -0.00424366 0.0258002 0.0477476 0.0493745 0.0183473 0.0112941 0.00704142 0.00538767 0.0509593 0.0389427 0.0258413 0.0234055 -0.00533178 -0.0520826 -0.0478613 -0.0166164 -0.00858404 0.0190984 0.0418281 0.0107989 -0.012475 -0.0062313 -0.0244727 -0.000442102 -0.00607238 -0.000657047 -0.00401774 -0.0184531 0.0256604 0.040785 0.0295064 0.0375386 0.0215029 -0.0100049 -0.0190225 0.0186365 0.0449888 0.00911565 -0.00371139 -0.0149721 -0.0137748 -0.0435873 -0.0552794 -0.0169056 -0.0268683 -0.0209453 0.0135904 0.00348502 -0.00498529 0.0102702 -0.0213004 0.00555976 -0.0101979 -0.00108962 -0.0190502 -0.0221407 -0.00760287 0.0045246 0.022087 0.0105736 0.00134227 -0.00320264 0.0410453 0.053661 0.0172316 0.0248433 -0.0103759 -0.0266354 -0.0331503 -0.0414191 -0.0415264 -0.0382604 -0.0258124 -0.00678189 -0.0051885 0.00881177 -0.0101664 -0.00525722 0.014307 0.0121329 0.00466671 0.00646622 -0.0245548 -0.0214566 -0.0293291 0.00380434 -0.0117992 0.0180642 0.0254176 0.0584825 0.0458869 0.0331201 -0.00134687 0.0148005 -0.0223148 -0.0561559 -0.0405556 -0.018628 -0.0455111 -0.0421368 -0.017556 -0.0207216 -0.0153799 -0.01559 0.0102238 -0.0100402 -0.0115516 0.00900362 0.00653592 0.0148367 8.02472e-05 -0.0263336 -0.0253257 -0.00696208 0.00813195 0.0320696 0.0341665 0.0520545 0.0618303 0.0552454 0.0179886 0.0101098 -0.0329754 -0.000995877 0.0184379 -0.0216889 -0.0328439 -0.0404177 -0.0188818 -0.0152943 -0.0255505 -0.0154743 -0.0172868 0.0139055 0.00698357 0.0120027 0.000357323 -0.00376713 -0.0190231 -0.0355486 -0.0351244 -0.0109512 -0.00444112 0.0237867 0.0225146 0.0463341 0.0351478 0.0180515 0.0162809 0.00453022 0.0173799 -0.0333369 0.00547661 -0.000752764 -0.0109607 0.00306798 -0.0197764 -0.00881089 -0.0145708 0.0027525 0.00217509 0.000788153 -0.0139676 0.0134974 -0.00735736 -0.0155219 -0.0144914 -0.0383017 -0.0298782 -0.0356127 -0.0273852 -0.00960857 -0.00454154 0.0352917 0.0340635 0.0166508 0.0159829 0.0218488 0.00343376 0.023637 0.0380892 -0.0190568 -0.0247035 -0.0381443 -0.0282158 -0.000266484 -0.0272715 -0.0148403 0.0104117 -0.00180699 0.0157018 -0.0103035 -0.0195901 -0.0105324 -0.0235492 -0.0412418 -0.0379268 -0.0189194 -0.00929841 -0.0179736 0.00446108 0.0188469 0.0435381 0.0205638 0.0297328 0.0192975 0.0277171 0.0193964 0.0174451 -0.0104163 -0.0302473 -0.0380922 -0.0185563 0.0236701 0.00456311 -0.00241349 0.00516356 -0.000708168 0.00531485 -0.00465596 -0.000944893 -0.000258819 -0.0151331 -0.0224982 -0.0413203 -0.0392942 -0.0110165 -0.00266638 -0.0354631 -0.00903225 0.0138779 0.019642 0.0593711 0.0360422 0.0512329 -0.00483279 -0.00100464 -0.00233158 -0.00444155 -0.00140776 -0.00623548 0.0132067 0.0268463 0.00447113 -0.00606208 0.00198848 -0.00339177 0.00153827 0.00646843 -0.00946836 -0.0174417 -0.0294937 -0.0316413 -0.0610738 -0.0487091 -0.0193123 -0.0309432 -0.0216545 0.0215591 0.0498572 0.0299987 0.0523783 0.0252043 -0.000968249 0.00311072 0.023125 -0.00125665 0.0127105 0.021024 -0.00498926 0.000397061 -0.00400674 -0.00289329 -0.00131286 -0.0180436 0.0148364 -0.00881661 0.00978492 -0.0223006 0.00117484 -0.0317664 -0.0419744 -0.0333738 -0.0498804 -0.0402977 -0.0113926 -0.022175 -0.0186534 -0.00932174 -0.00286625 0.026812 -0.0024288 0.00899613 0.00413764 0.0104487 0.0172555 0.00581656 0.0168101 0.00302641 0.0204072 -0.0118274 -0.0140453 0.011413 0.00633623 0.0167401 -0.00575855 0.00645216 0.00645716 0.00649881 0.00267212 -0.0193401 -0.0229644 -0.0340921 -0.0345041 -0.0191371 -0.000131734 -0.0214352 -0.00858612 -0.0211698 -0.0177172 0.00470303 -0.00292866 0.0298996 0.00993858 0.00903931 -0.00416737 -0.00432355 -0.0170782 -0.0109639 -0.0114579 -0.00633236 -0.011232 0.019645 -0.0082272 0.00185032 0.00209481 -0.00534117 -0.0195891 -0.00387762 0.0216353 0.000976756 -0.0162832 -0.0134585 -0.0201526 -0.00781089 -0.00866383 -0.0076787 -0.0178359 -0.00772045 -0.0262133 0.00891993 0.003019 -0.00141605 0.00151493 -0.00365549 0.0131962 0.015704 -0.00206026 0.015447 0.00275359 -0.00409794 0.00144871 -0.0188426 0.00835493 -0.0150591 0.00561328 0.00842595 0.0140085 -0.00764236 -0.018594 0.00205876 0.00125848 0.000319628 -0.0168279 0.00555309 -0.016364 -0.0042932 -0.00698846 -0.00608377 -0.00467566 0.00333991 -0.0113299 0.00494695 -0.011143 0.00401179 -0.0128927 -0.00446361 0.0044478 -0.0162812 -0.0112346 0.00400089 0.00751785 0.00858113 0.00172825 -0.0037368 -0.0106608 0.0091731 0.0180158 0.0133636 -0.00917016 0.00744323 0.00539788 0.0117874 0.00571228 -0.006077 -0.013186 -0.00543267 0.00836483 0.000620529 0.0105888 -0.0110121 -0.0153301 -0.00959545 0.000366683 -0.00518031 -0.00379205 -0.00409191 -0.000594692 -0.00118615 -0.0089444 0.0161486 0.0159254 0.00620131 -0.0054267 -0.00188872 -0.00892922 0.00828425 0.0206136 0.00445895 -0.000917143 -0.00770331 0.00804047 0.00684256 0.00590844 0.00408375 0.0118849 -0.0112441 -0.0102793 4.7181e-05 -0.00821783 0.000773989 -0.00668157 -0.0187337 0.0240821 -0.0182117 0.00867533 0.00865138 0.000858192 -0.00335298 0.00763279 0.00504386 -0.00733499 -0.00134621 0.0187495 0.00167563 -0.00863768 -0.0023744 -0.00340572 0.00912086 -0.000137606 -0.00696443 -0.0102099 -0.0206409 -0.00386978 -0.00152908 -0.00386816 0.00552047 0.00164222 0.00310614 -0.0137738 -0.0130258 -0.0119198 -0.011862 0.000400822 -0.0092205 0.0120459 0.00274682 -0.0170381 0.0188757 0.0083521 -0.00297242 -0.0140342 0.00608464 -0.00991052 0.00814616 -0.00832312 -0.00432841 0.0197729 0.00646561 0.00124578 -0.0127405 -0.00216159 -0.00427297 -0.00611652 -0.00635839 0.00303541 -0.00494197 -0.00149386 0.0126406 -0.00225945 0.0179609 -0.00169647 -0.00141738 0.00229712 -0.00730305 -3.37582e-05 -0.0122701 0.00248643 0.010018 0.0140077 -0.0165962 0.00535334 0.00636335 0.0018386 0.00871244 0.00320053 0.0266741 0.00374134 0.021863 -0.00997778 -0.0192547 -0.0150179 -0.0182034 -0.0185088 0.00446949 0.00425663 0.00379913 0.00636012 -0.00754348 0.00730173 0.00248987 0.00313991 -0.00224404 0.00427079 -0.00436504 0.00576325 -0.0195743 -0.00581758 0.016361 0.0317346 0.00100148 -0.0378207 -0.0436278 -0.0563679 -0.0442752 -0.0212034 -0.0127676 -0.021356 -0.0101809 -0.00834071 -0.00202769 -0.0135828 0.00314365 0.0111685 0.00979378 0.00467937 0.0119613 -0.00897206 -0.00180751 0.00654312 0.00595718 0.0113715 0.00549511 -0.00705059 -0.00486364 0.00556725 0.0319539 0.0290624 0.012463 0.0194546 0.0285973 0.0174741 -0.00336622 0.0245394 -0.00230613 -0.026245 -0.0204625 -0.00684112 -0.0138446 0.0173338 0.0199834 0.0170645 0.00211164 0.00315227 -0.00460061 0.000472458 0.00206793 -0.000404875 0.0202834 0.00569652 9.11313e-05 -0.00281955 0.0120207 0.0215755 0.0386828 0.0364232 0.065459 0.113382 0.087181 0.0576428 0.0190311 0.0328597 0.0618813 0.0257901 0.0208962 0.0186337 0.0207961 0.00987217 0.0119129 -0.000402746 -0.00567025 0.00143065 0.00365807 0.00808133 0.0108776 0.00144259 -0.0140322 -0.00103671 -0.0258194 -0.0197442 -0.00353691 0.00449781 0.0171548 0.0477092 0.0753074 0.0928949 0.0893071 0.0555836 0.0147319 0.0509648 0.0648917 0.0368731 0.0197541 0.0262036 0.0115436 0.00986912 0.00300719 0.00538973 0.0171611 -0.0124398 0.00998335 0.0147036 -0.00234679 0.00821944 0.0238517 -0.0193021 -0.0266371 -0.0212107 -0.0179724 0.0153585 -0.00493823 0.0400831 0.0427982 0.0692416 0.0523316 0.0470105 0.0471754 0.0514072 0.0426219 0.0132193 0.0127435 0.0257879 0.0259717 0.0303136 0.0350792 0.012353 -0.00903359 0.00503508 -0.00890228 -0.00735986 0.00848045 0.0190336 0.0156751 0.00102322 -0.0205223 -0.0422385 0.00128017 -0.00584338 -0.00558288 0.00243762 0.00559129 0.0383408 0.0614775 0.0259336 0.0233214 0.0426596 0.0201029 0.0104717 0.0349881 0.0365417 0.0213919 0.0177164 0.0141791 0.0251682 0.00192599 -0.00212577 0.00315823 0.00102701 -0.0162837 0.00454922 0.0202451 0.00675581 -0.00183599 -0.00509069 -0.00261668 -0.00862979 0.0173006 -0.016868 -0.0118923 -0.00419951 -0.0117549 -0.0204412 -0.00548417 0.00961026 -0.0124162 -0.0117296 0.0176667 0.00750822 -0.0144107 -0.00262673 0.00305458 0.00393069 -0.00777557 0.00920222 0.0101724 0.0104862 0.00183316 -0.00124807 0.0178779 0.0381713 0.016323 0.0227351 0.00462216 0.0121384 0.0301374 0.0105671 -0.00735994 -0.0364404 -0.0286989 -0.0622957 -0.0424864 0.00793704 0.0222417 0.0301924 0.0163108 0.022365 0.00795241 -0.00383666 -0.00370623 -0.0093328 0.00131548 0.00157567 0.00399219 0.00733836 -0.0103461 -0.00702766 0.0305581 0.0429929 0.0437725 0.030311 0.0316483 0.00785519 0.0111349 0.00916548 -0.0309754 -0.0232786 -0.0590909 -0.0328929 -0.00449992 0.0125316 0.01804 0.037586 0.00760972 -0.00869195 -0.0131589 0.0182687 0.000655737 -0.0163299 -0.00982093 0.00919338 0.00447135 0.00569368 0.0129362 0.00812721 0.000831798 0.0187589 0.00666271 0.0166639 0.033781 0.0107777 0.0117861 0.0191435 -0.0416963 -0.0465345 -0.0553284 -0.0366145 -0.0112246 0.0327083 0.0181195 -0.00217891 -0.00928764 -0.0157362 -0.00652625 0.00594218 -0.00861199 0.00425463 0.00706915 -0.00261157 -0.00459544 -0.0166631 0.0166617 0.00804189 -0.0104624 -0.00367042 -0.0287813 -0.0200757 0.00512392 0.0049174 0.0099289 -0.0309812 -0.0581065 -0.0742608 -0.048902 -0.0150974 0.0128064 0.00657413 0.00438072 0.0188242 -0.00728593 0.00298738 0.0126202 -0.00128709 0.00866077 0.0047762 0.0209652 0.0105477 0.00819167 -0.00922139 0.00951719 -0.00394699 0.00154652 -0.0181298 -0.0383833 -0.0664616 -0.0281298 -0.0382246 -0.0373564 -0.0649374 -0.0831571 -0.0939606 -0.0482503 -0.00675037 -0.00573363 0.00207277 0.0292952 -0.00382857 0.00164384 -0.0177668 0.00840047 0.00230932 0.00406127 0.0023566 -0.0133864 -0.015236 0.0103446 0.00866855 -0.00172625 0.0274784 0.0221642 0.00195718 -0.0119666 -0.0882637 -0.0893489 -0.0837535 -0.103201 -0.100792 -0.0807927 -0.0914318 -0.0343119 0.0150633 -0.000392669 -0.0106282 0.0197325 0.0137761 0.014927 0.0121307 -0.00826223 -0.00794258 0.000863406 0.00315419 0.00907667 0.00287619 0.0112679 -0.0149705 0.00815938 0.0267303 0.0238334 0.0417073 -0.00106786 -0.0574688 -0.0935083 -0.159451 -0.132762 -0.119291 -0.0871568 -0.0698878 -0.00432204 0.0287674 0.0469773 0.0369752 0.0339731 0.0220184 0.00907661 -0.0216621 0.00608633 -0.00492273 -0.0111028 0.000179613 0.0145195 0.00670641 -0.0025959 -0.00228896 -0.00364761 0.0191924 0.0429579 0.0453937 0.0173546 -0.00501963 -0.0737228 -0.0860206 -0.0855834 -0.0731619 -0.0604914 -0.0366197 -0.00014448 0.0518008 0.0218068 0.00308126 0.0197904 0.0128045 0.00400273 -0.000254785 -0.000263428 -0.0159773 0.00770627 0.00899038 0.00321003 0.0125304 -0.00577202 -0.00444631 0.00188591 0.0185763 0.0374355 0.057926 0.0485295 0.0314563 -0.0154834 -0.0295694 -0.0409689 -0.0137831 -0.0245731 -0.0287147 -0.0102713 -0.000428339 0.0107502 -0.00633019 0.00911303 0.0176115 -0.0119401 -0.0255255 -0.0152235 -0.00342762 0.00662228 -0.00592413 0.00857253 -0.0140379 0.0161683 -0.0126523 -0.0113924 0.0356266 0.0288892 0.0259739 0.00875732 0.0405457 0.0508833 0.0119283 0.00634841 0.00878278 -0.0152928 -0.0445191 -0.030308 0.000415201 0.00622779 -0.0256773 -0.0278947 -0.00903362 0.00711629 -0.0218569 -0.0194094 0.006719 -0.022002 -0.00209856 -0.0146068 -0.0103909 -0.015751 -0.0397573 -0.0147285 0.00545698 0.0113738 0.0210155 0.0075563 0.0320217 0.0477816 0.0559401 0.0449182 0.0183923 2.21122e-05 -0.0283402 -0.00702717 0.0224754 0.00611484 -0.0162888 -0.0305064 -0.000820321 -0.0338094 0.00238505 -0.0119427 -0.0151358 -0.00518788 0.0162488 -0.00246262 -0.00531633 -0.00369709 0.00856113 -0.0123138 0.0132477 0.0118508 0.003378 0.0196676 0.0196108 0.0250394 -0.00346684 0.0242938 0.0190827 0.00702424 -0.00977083 0.0101509 0.037959 -0.0118044 -0.0120321 -0.0233051 -0.0267508 -0.0235182 -0.0042083 -0.0141366 -0.0122627 -0.0150723 0.0213214 -0.0025489 -0.00572602 -1.80911e-05 0.0160629 -0.00955035 0.0114686 0.00556416 0.0429524 0.0209673 0.0388712 0.0336416 0.019894 0.0322114 -0.0100554 0.0139555 0.0224786 0.00534996 0.0272711 0.0128469 0.0118219 -0.00967102 -0.0157438 0.00815332 0.00978122 -0.00376913 0.00691765 -0.0193636 0.00440233 -0.0124329 0.0167893 -0.000663168 0.00238282 -0.00186018 0.00770155 0.021947 0.0211736 0.0316012 0.0338996 0.0393482 0.0332237 0.0635903 0.0582388 0.0652994 0.054478 0.0606439 0.0712767 0.0496261 0.0299515 0.00748917 0.0136198 0.0139828 0.00732606 0.00643934 -0.00342579 -0.0125663 -0.01152 -0.0118997 0.01411 -0.00784806 -0.00489692 0.0107025 -0.0213331 0.00313415 -0.0013093 0.0167923 0.0174269 0.0124849 0.0196556 0.0205782 0.0239666 0.0277538 0.0191302 0.0244242 0.0208922 0.0437824 0.0142778 -0.000398826 0.00381004 0.0186598 0.020598 0.00553732 -0.0102622 -0.0108654 0.00274984 -0.0203979 0.00423465 0.0111164 0.0116197 0.0145794 0.0027945 -0.00834502 0.000934059 0.00127374 0.00231739 -0.000188691 -0.00877648 0.0193393 -0.0165098 0.00287469 -0.0213847 -0.016385 -0.0089431 0.0279836 0.00256256 -0.00648624 -0.00287313 -0.00894328 0.014155 -0.0020602 0.013469 0.0032217 -0.00751198 -0.00166062 -0.00389007 0.0191205 0.00882982 0.0105267 0.00560199 -0.00286697 -0.00928459 0.00762485 0.0206933 0.00149304 -0.0012223 0.0132418 -0.0039361 0.00894615 0.00127359 -0.00103743 -0.00469541 -0.00521665 -0.00392581 0.0107113 -0.00449671 0.0037132 -0.00903309 0.00397975 -0.00252723 0.0126168 -0.0178499 -0.00491041 0.00152411 0.00653198 -0.0102854 -0.0103735 7.5115e-05 -0.00387027 -0.00788458 0.00131526 0.00643929 -0.00367512 0.00351295 0.00215802 -0.0126052 -0.0015153 0.0103811 -0.0104748 0.0133487 0.0070041 -0.00393856 0.00197439 0.0156854 0.00703855 0.0115908 -0.00290724 -0.0132556 -0.00683335 -0.0113284 0.00582623 -0.017495 0.00822763 -0.012324 -0.0114538 -0.00372353 -0.00541256 -0.00565827 0.0140833 -0.00536067 -0.00663336 -0.00591441 0.00385652 0.00563504 -0.00740081 -0.013014 0.0101155 0.00266527 -0.00663325 -0.0173222 0.00602564 0.00458451 0.00242394 0.00698759 0.00408663 0.00593729 -0.000995749 -0.0026102 -0.00088982 -0.00957876 -0.0104855 0.0025843 -0.000955917 -0.00232601 0.00372837 -0.00237972 -0.00549212 0.0111197 0.00786329 -0.0173415 -0.00510305 0.000973723 -0.00164181 0.00288583 -0.00147026 -0.00260131 0.00506173 -0.0159159 0.00660045 -0.000161185 -0.00996812 0.000255862 0.00333446 -0.0187467 -0.00085211 0.0101859 0.0075082 0.016019 -0.0110952 0.00318277 0.00417796 0.0158695 0.00572136 0.0155767 0.00517002 0.0243575 -0.016877 0.00171901 -0.00630443 0.00191522 0.00794287 -0.00371935 0.0202197 0.00117359 -0.00372293 -0.010238 -0.00979265 -0.00394521 0.00824628 0.00276767 0.00243948 0.00741491 0.000945012 -0.00295268 0.00473659 -0.00796349 0.00796599 0.00347594 -0.00726456 0.00925603 0.00554116 -0.00535643 -0.0158945 -0.00104004 0.00736012 -0.0105818 0.00221116 0.00967556 0.00481654 0.00558008 0.0116964 -0.000437408 0.0116389 0.00358062 0.0108928 0.0130475 -0.00511754 -0.00207968 0.0145852 0.0096708 -0.00111944 0.00713594 -0.00177083 -0.00435049 -0.0105904 0.0172465 0.0148322 -0.00889769 0.00347418 0.016906 -0.00902547 -0.0149119 -0.00280741 0.00148467 0.00549419 -0.00742882 -0.0171287 0.0156318 -0.00492057 -0.000669703 -0.0047285 0.0239529 -0.0115577 0.00130147 -0.0108866 0.00968232 -0.00619241 -0.0297355 -0.00460264 0.0155558 0.0172613 0.00329344 0.00740941 -0.00667456 -0.0295151 0.00165626 0.0029608 -0.00349613 -0.00637442 0.0209699 0.00910622 -0.000285176 0.000318299 0.0169983 0.00863165 -0.00632143 0.0137133 0.0084521 0.0142645 0.0244558 -0.00240788 0.00117847 -0.0168216 -0.0300002 0.0037932 0.0122602 -0.0114274 -0.00931111 0.00510887 -0.0101545 -0.00449067 0.00822041 -0.000166066 -0.0111559 -0.0193982 -0.0127321 0.00229614 -0.0154757 0.0143453 0.00407061 -0.0137052 -0.0041151 -0.0166136 0.0109008 0.00599391 -0.00268481 0.00613393 0.00717857 0.0146881 -0.0047973 0.0136132 0.000709717 0.0102126 -0.0149315 0.00821071 -0.00587283 -0.0147292 -0.020534 -0.00142092 0.0190004 0.0165715 -0.00351879 0.00419315 -0.00310002 -0.0090855 0.0244259 -0.00268717 4.3217e-06 0.0117903 0.00419471 0.00935819 0.0178664 0.000803783 0.0109816 0.000946982 0.00534235 -0.0158293 0.0029382 0.012005 0.0185335 0.00836025 -0.0101117 -0.0144162 0.00573472 0.00495263 0.00989351 -0.00644766 -0.0195973 0.00446902 -0.0143357 0.0178817 -0.0102751 0.0118222 0.00546518 -0.0125766 0.00905506 -0.00173011 0.00409531 0.017414 -0.00495685 0.0131549 0.0120242 6.80981e-05 0.00167062 0.0205216 0.0021155 -0.0157582 0.0145728 0.00466251 -0.00186997 -0.0114363 0.0131984 -0.0095977 -0.000714533 0.00249522 0.00528143 0.0024285 -0.0160105 0.00676015 0.00997311 0.0122709 0.000890233 0.00384596 0.00529578 -0.00876473 0.00148909 0.00210845 -0.00329868 -0.000641391 -0.00552279 0.0147778 -0.0011807 0.0178204 0.0158921 0.0104357 0.00604303 0.00097338 0.00810636 0.00900359 -0.0121627 -0.000378141 -0.00339643 0.0135171 0.00422086 -0.000830543 -0.015099 -0.00186483 -0.014474 -0.0116519 -0.00452988 -0.00599623 0.00425849 -0.00297764 0.0241808 0.00916964 -0.00122617 -0.00753825 0.0141538 -0.00863868 -0.0146619 0.00899659 0.0128128 0.0091679 0.00387532 -0.00629495 -0.0124194 0.00879484 0.00127079 0.00205216 -0.000934614 0.0157363 -0.0234232 -0.00796084 0.0106548 0.00920504 0.00382063 0.00554282 0.0122313 0.0157993 -0.0118581 0.00890783 0.0105974 0.00731609 0.0118376 -0.00767488 0.0052918 0.00789323 0.00318895 0.00774089 0.0101409 0.00356567 0.00515741 -0.00010791 -0.00272644 0.01968 0.00914316 -0.000980905 0.000853812 0.00872674 0.00913404 0.00522944 -0.00590981 -0.00339663 -0.019374 0.00852084 0.00536197 0.00710412 0.014848 0.00136603 0.00577015 0.0128877 -0.00250352 0.0112182 0.00547677 0.00357198 0.00410159 0.00510246 -0.00284901 0.0161983 0.00224674 0.00319585 0.000215446 -0.00633343 -0.025382 -0.00826203 0.0122638 0.0138704 -0.00163297 0.00325744 -0.00548841 -0.0162089 0.00869999 0.00487625 0.00618995 0.000858285 -0.00854306 0.000466935 -0.00245716 0.0147252 0.0105671 0.00772867 -0.00162785 0.0107253 0.0124371 0.00884895 0.0213686 -0.000854342 -0.0171452 0.00661523 0.00412339 -0.00266475 -0.0107448 0.00896683 0.0190929 -0.00918282 0.00343456 -0.00857634 -0.00803114 0.0252643 0.0135058 0.0131008 0.0193832 0.0043261 0.000459014 0.00459283 -0.00716845 0.00370477 -0.00395763 0.00467515 -0.00922561 0.00478537 -0.010285 0.00522778 -0.00123502 -0.00573917 0.00311857 0.00575386 -0.000820001 -0.00589124 0.00313917 0.0025866 0.00520227 -0.00456812 -0.00447281 0.000530052 -0.00451972 0.00443679 0.0144484 -0.00387852 -0.000848084 0.00702071 -0.00521974 -0.0172892 0.00432626 -0.00654702 -0.00994089 0.00113494 0.0073838 -0.00858446 -0.0063735 -0.00854288 0.00647752 0.0129747 0.0131276 0.0231356 -0.00749075 -0.00162255 -0.0241819 0.0108046 0.0114028 -0.0100071 -0.00326676 -0.00346215 0.00287409 -0.00585432 0.00676336 0.00425672 -0.0213179 0.00350847 -0.00210141 0.00708106 -0.0124247 0.012119 0.00942366 0.0206413 -0.0215721 -0.00483015 0.00672759 0.010601 0.0102938 0.00327045 0.0139419 0.0114596 -0.0184423 0.0127234 -0.00212034 0.00403515 -0.010961 -0.0116 0.0102715 -0.011836 0.00908279 -0.00582347 0.00793885 -0.00722038 0.0191613 0.00603478 0.00631168 0.0120714 0.0125689 -0.0041056 0.00896673 -0.00317377 0.00679787 